3393 10
0 2.5263703 -1.760995 2.6996195 1.8218281 0.24648014 -1.6096041 0.65195715 2.6318235 -3.9318085 0.30087888
1 2.720671 -1.4788303 1.9631554 1.6112705 0.5155367 -1.8978093 0.38072583 2.2750971 -2.6104305 -0.4201074
2 2.868366 -1.5003628 2.2638485 1.5209376 0.5979501 -1.7028706 0.40747947 2.4071987 -2.411399 -0.013517243
： -0.4667634 -0.18632844 0.709209 -0.9688026 -0.019663842 -0.066454224 0.53670305 1.3447969 -0.1510982 0.2530777
大 0.17662282 -0.33825573 0.6489367 -0.21392198 0.61870056 -1.5035412 -0.48389393 1.4802839 -0.35236353 0.67681867
图 0.47448528 0.1191741 0.8029254 -0.46622482 2.132015 0.07093034 4.241092 1.5567871 -2.9888887 2.0316122
国 0.5796342 -0.31284583 2.1013882 -2.942477 0.47124356 0.7481879 -1.1337242 1.9468752 -0.06244245 0.39421198
( 1.1802453 0.49780062 0.86665493 -0.9112518 1.1915593 -0.28151402 2.4368863 0.76355207 -1.9424195 -0.27680746
) 0.98320735 1.1729409 2.2399883 -1.9881771 1.7197142 -0.0379979 5.2278967 1.4775898 -4.2798347 0.89873666
3 2.4697077 -2.1866577 2.0953672 1.8370441 0.14532705 -1.6495994 1.2102178 1.5578294 -1.7552996 -0.77422273
人 -0.28328702 0.08172273 0.27036065 -0.37033463 2.204945 -1.3110958 0.31261766 -0.10290203 -2.0424743 -0.16774306
5 2.4419327 -1.7645029 1.9060748 1.8670594 0.1249738 -1.6946504 0.9921428 2.0749693 -2.734369 -0.49429378
年 1.5999172 -0.502165 1.059666 0.10546435 1.098672 -1.3089195 -1.2231236 1.6442752 -2.515211 -0.66963166
中 0.45120212 0.21131708 1.3745949 -0.7000481 0.025829421 -1.2892883 0.21354263 2.244822 0.3633557 1.5029562
新 0.9201609 -0.94814074 -0.3360774 -0.7962563 0.026931213 -1.262422 -0.45908907 1.0625024 0.046846356 -0.2087321
9 2.9231722 -1.021911 1.7157216 1.4570605 0.6700469 -2.365921 0.62942404 2.961515 -3.361951 0.15266864
生 -0.6903103 -0.6799516 1.1871922 -0.60397863 0.04422136 -3.079113 -0.2337788 0.013080187 -0.9669058 1.9855367
高 0.8923948 -0.5937141 2.261413 -0.5358797 -1.5150908 -3.071073 -0.06360265 0.8560039 -0.6978449 0.8099541
金 0.46321473 0.9354743 1.8185803 -1.5577466 -0.32542607 -3.1790032 -0.32848796 1.7580087 -0.45727873 -2.9584193
《 -0.007048548 -2.2199316 -0.46936062 -0.6306335 2.4055858 0.89634526 0.76441616 0.19342361 0.04153621 0.21756774
》 1.6888461 -1.5471352 -0.19710478 -0.49728918 1.5739185 0.59206396 0.09692229 1.1332381 -0.043887954 0.522433
4 2.5053997 -1.7256742 2.0918245 1.8939334 0.23121895 -1.904957 1.0953912 2.0632908 -2.1383119 -0.9247068
考 -0.29999965 -0.37545535 0.5769144 -1.4693882 0.75396794 -1.7220144 -1.163152 0.8973452 -3.8311424 2.5630848
上 1.3421912 -1.4496208 0.33756635 -1.0952917 -2.301415 -1.8479606 0.016993277 0.9079147 -0.26939625 -0.7570979
不 -0.8613477 -0.54890376 -0.6690423 -1.1491566 0.46083358 -0.6322754 1.3335296 -0.39557287 -0.9483749 -1.1208835
8 2.6392663 -1.4535828 2.0812793 1.6560969 0.07005351 -1.6353818 1.012525 2.4491332 -2.9370408 -0.34070572
元 0.55602753 -0.89869505 3.3931894 -0.1039295 -0.81045246 0.38272545 1.1220552 2.4974387 -3.9198494 0.26115012
开 2.4692345 0.17003232 -1.8637729 -0.88213736 0.16224165 -2.3662775 0.4200641 2.7107596 -0.59119016 0.601298
日 3.3114283 -0.6540787 0.19066173 -0.016001085 0.36832044 -2.3529246 -0.31530225 1.6042488 -1.7740057 -1.1350743
一 0.45938528 0.23264211 0.4159777 0.32788348 1.012228 -1.1611491 1.7928782 1.3901047 0.18339461 -2.432975
6 2.6399827 -1.5446907 1.7795527 1.8590748 0.049782526 -2.0129066 1.2316172 2.1076376 -2.5209105 -0.5509239
发 3.0656474 -0.69039065 -0.6861766 -2.4605541 1.1276547 -1.5514562 -1.4553713 0.49739996 -0.82451284 0.7382086
美 0.007849689 0.1530415 1.9228516 0.46509162 1.026755 -0.6524195 0.93275553 2.4999611 -0.039077308 1.8282014
价 1.339567 -1.9931588 -1.3778881 0.4910411 -2.280738 -1.2820508 1.3107437 2.6323013 -4.2187033 -0.51420254
月 4.306399 -0.6294798 1.0974456 0.07758486 1.3540452 -1.7403278 -0.7062997 2.5099092 -3.1428788 -0.77048284
公 3.8001919 0.8412013 -0.585701 -1.7197502 1.0106398 -1.2134789 1.1781235 2.7888167 0.5989998 0.40320373
学 -0.67346805 1.4648935 3.154502 -0.8105423 2.0456114 -3.296933 -0.4898618 0.87233746 -1.9191798 0.41803297
7 2.678325 -1.863663 1.7002482 1.8503394 0.21735734 -1.3544358 1.2869781 2.1259513 -2.509369 -0.659463
将 0.6240806 -0.76749754 -0.43446892 -1.1148045 -0.43592453 -1.3901639 0.06032165 0.5105335 -0.4066505 -0.5547183
子 -1.2881421 -0.6825248 0.67660517 -1.5065674 2.8560443 -2.3097699 0.80418974 -1.9424875 -0.96688277 -0.43762916
市 0.1899166 -1.2404695 -3.175318 -0.6802363 0.43657556 -1.0420291 -1.3151746 4.3586764 -2.3611407 -0.46402833
基 -1.4384027 -0.49092126 -1.1673664 0.8793956 0.06591002 -2.792233 0.95644754 4.8685794 1.2016722 -2.0032384
成 -0.044963807 -0.3371365 -0.4597566 0.06418875 0.34072194 -3.1154976 -0.31449762 0.66119564 -1.0511581 0.5588289
业 0.17709808 0.19894773 0.012478026 -2.3944812 1.2985401 -4.028319 -2.5468657 1.1007376 -0.8257057 1.5027966
出 1.0270892 -1.242869 -0.5974955 -1.0831013 -0.9307407 -1.9278723 0.5691739 -0.46731752 -0.6893211 0.08675604
万 0.55961925 -0.65121055 3.3003302 1.4495544 0.07316108 -1.232397 0.8126812 1.8096461 -3.7859015 -0.53765213
机 2.152425 -1.9155855 -2.6521714 -0.36515677 0.55159974 -1.6787456 2.04239 0.5242497 0.5395694 0.100090325
行 -0.15872803 1.1823001 -1.0594133 -2.7430627 0.5092698 -0.7765805 0.08689784 2.53054 0.43364796 -2.1535082
被 -1.802995 -0.2406287 -0.30973163 -0.74541587 -0.08592595 -1.7028698 1.809687 -0.45048186 -1.2757285 -0.34831798
股 -0.22305322 -1.448878 1.4361223 -1.1661677 -3.400732 -1.7977004 -0.8554565 3.0874858 -1.4886063 -1.4579672
期 0.27228945 -0.7052925 -0.09564563 -1.642219 -1.6176004 0.2964626 -0.36390054 3.1282163 -3.3949478 -2.5249841
家 0.11010306 0.29305667 0.8024049 -1.0625424 1.8210187 -2.353766 -0.69289446 0.22102782 -0.62864333 1.1078032
女 0.038769804 -0.83268845 2.856539 -1.6352317 2.2465405 -1.2224591 1.3694948 -2.1416094 -0.31017622 0.2607251
小 0.4152321 -0.35724187 0.46357355 0.17688288 0.51046586 -0.46416205 0.85295826 1.5888913 -0.014085307 -0.098607175
的 -0.39861828 -0.69805956 0.22014004 -1.0470119 0.53964674 -0.02009197 0.35721028 0.34594497 -0.28302896 -0.35387045
平 2.8346474 -1.7065988 2.6010537 0.5588305 -0.69978994 -1.601489 1.303597 0.8179937 -1.722019 -1.3844739
场 2.3521013 -1.7921045 0.20908612 -3.628981 -1.1166834 -0.6271893 -1.2811776 -0.3129845 -1.1248295 -2.241385
网 1.0453179 -1.4963536 -1.3458027 -2.3524446 4.21929 -0.30199847 -2.444846 0.7733534 0.2508982 -0.5021032
在 1.827972 -0.5873993 0.3047073 -1.705612 -0.41729912 -1.7318965 -0.38539523 0.0976604 -1.0363979 0.78099734
会 0.47451136 0.06517112 -1.1866642 -2.8488271 0.9256982 -0.82009655 0.0558369 0.61850476 0.76969844 -0.4249168
地 -0.12053134 0.5258461 0.019016054 -1.8849229 0.3187561 -1.4714648 -1.4232163 2.4105062 -1.0204777 -1.4809062
- 2.5317912 -2.4657197 3.3940132 1.5731856 1.6147763 -0.45204508 1.1250169 1.4832926 -0.67248446 -1.0164595
全 1.4069498 0.124505535 -0.012966717 0.14431792 1.5846541 -1.8164564 -0.03541789 2.384309 -0.036081158 1.4093655
房 1.5541643 0.14178263 1.6389916 -1.8417845 -1.0997846 -3.6471126 -1.151245 0.78991383 -1.7199224 -1.7362609
名 0.872214 0.03758691 1.81469 -0.6641772 2.3417513 -1.1062754 -0.7114739 0.00927462 -2.1964011 0.44649246
后 0.56663376 -0.6813961 -0.7822096 -1.247812 -0.71148837 -1.4481422 0.7439434 -0.14325577 -1.5029944 -1.1336966
三 0.39873388 -0.2892047 1.4500275 0.75548035 0.75182664 -1.6452492 1.0304732 1.9247535 1.0664771 -1.3697516
分 1.1971864 0.87129426 -0.036718175 0.5716413 1.3589227 -2.8529952 1.6094764 0.7453872 -1.7017245 0.00961445
现 0.5937588 -0.93273365 -2.6038287 0.44984993 0.45057523 -2.4551044 0.18769744 1.4713184 -1.4023694 -0.7270725
盘 2.9426684 0.09563191 -0.66787493 -0.21033601 -0.58376324 -2.2531288 1.202927 2.8766906 -1.3497578 -1.2299129
首 1.7273086 -0.94219726 0.2460028 -0.049168758 0.24144673 -2.656244 0.17026392 1.6487833 1.6027856 -2.0396361
称 -1.180161 -0.5057808 0.45155495 -1.9437397 -0.06191906 -1.2823783 0.8531458 -0.22870521 0.35689417 0.8624543
下 1.0015441 -0.9238817 -0.07262488 -0.06308597 -0.6619177 -0.7378179 -0.08303771 2.2002835 -1.0341339 -1.5108061
为 -0.38324273 -0.45508042 0.49449977 -1.4815233 0.47065687 -1.0540017 0.2539221 -0.58974636 -0.9728459 -0.16210051
有 -0.04100392 -0.13575631 -0.17801057 -1.1261128 0.230171 -1.2249149 0.5611987 -0.015034218 -1.270756 -0.9248497
组 0.15796567 1.4801064 1.2721728 -2.1979609 1.4411961 0.5780047 2.9397578 1.4945624 -1.8280548 1.107407
天 0.36143056 -0.9639865 0.18848243 -0.07981851 1.6513215 0.44287485 -0.18108523 1.3001692 -0.864549 -0.91798013
” -0.20117892 -0.29292908 0.18498906 -1.2318844 1.0039519 -0.64515823 1.504607 -0.2776068 0.06797226 0.07179308
“ -0.44308335 -0.7476797 0.50127906 -1.10105 0.57312036 -0.7791055 0.45779076 -0.22733876 -0.20668761 -0.09179688
最 -0.79551536 -1.223576 -1.2070962 0.45743456 1.3520105 -0.8220305 -0.23234887 1.1098617 -1.5408535 -0.5576264
利 -1.3235327 -0.76335084 1.0538012 1.4819683 0.6728355 -1.1451664 1.1249064 2.8955004 0.52271825 -2.258388
本 1.374234 0.11277589 1.5331452 -1.0198939 1.739755 -2.059092 -1.4788449 0.93103194 -0.4743446 -1.9886217
时 1.3208555 -1.1312125 0.26929504 -0.69087464 0.5706284 -1.032049 1.1496226 -0.8117153 -1.0440605 -2.9095073
手 0.5193602 -1.9450485 -1.1940919 -0.9179929 1.3495638 -1.0466206 -0.22899528 -0.6399464 -0.3418387 -1.407867
北 -2.3123105 -1.2030456 1.6587216 0.465724 0.80344874 -0.62988645 -1.840131 4.5507264 -1.1152915 -0.23074973
起 2.4908946 0.019195711 1.1519315 -0.049712874 0.5698804 -1.6876199 1.2548497 1.2086084 -1.877213 -1.7645808
动 -0.59524375 -2.0807772 -1.6930885 -2.2854424 -1.4635543 -1.3831233 -0.610779 0.87297773 -0.058421742 2.4218285
主 -2.426245 -1.416817 -1.3794186 -1.5065613 0.05550099 -2.6263595 -0.723961 0.0013553686 -0.053779423 -0.18764938
战 1.5161338 -1.4230406 -0.44424775 -1.3347609 2.319798 0.02212828 -0.77981156 0.25957486 -0.073380075 0.21814813
长 -0.94190294 0.40169677 1.328457 -0.93603295 0.68745565 -0.72606784 -0.44462028 1.9052942 -0.68993336 -0.071307264
重 -0.4472006 -0.1832796 -0.05009608 -0.6660046 -0.85492927 -1.1367835 0.38185018 0.98087585 -1.8442392 -0.3080125
游 1.0491146 -3.7778542 -0.1647803 -2.0309343 -0.22017 -0.93197685 1.1383791 -2.2411065 0.33658984 -2.0503538
海 0.5831524 -0.89353025 -0.015104093 -1.6605593 2.4026926 0.15071747 -2.4269907 2.2373576 -0.3651156 -0.53089327
资 -0.73976815 0.33203128 -0.91227233 -0.92063177 -1.8945546 -2.4078434 1.9211869 3.9176743 1.6730809 -1.2698919
自 -0.72296387 -1.1676418 -0.29660937 -0.9472366 1.3753126 -2.4302204 -0.45549965 -0.4462749 -0.7219175 2.0766892
布 0.99612296 -2.4611328 -0.6866365 -0.4036327 -0.5995249 -4.340801 -0.9003799 1.5036542 2.3381193 0.25180545
售 3.6672513 -1.0276942 0.45409814 -1.09988 -1.4123738 -3.0905426 -0.68058074 1.7043389 -2.3444908 -1.5713418
男 0.6440384 -0.21023075 2.7616694 -2.2585413 2.2908757 -2.6650598 2.2829442 -2.187297 0.52843 -0.049325436
. 3.153261 -3.3204129 2.3748312 1.7858411 -0.3752742 -0.66918105 1.3516674 3.1201282 -4.5679016 -1.0057377
推 2.2502246 -1.1968896 -1.671921 0.2315877 1.799265 -3.100143 -1.4995443 1.8486174 -1.7319949 0.36490306
居 2.550576 -0.49334526 2.1156685 -1.6038389 1.0585061 -1.1148006 -0.6987622 0.75430083 -2.5413601 -2.1643202
赛 1.5136588 -0.65733325 0.17087221 -0.34912613 2.309929 0.1728224 0.7120049 2.2664495 1.4895146 -1.0568117
方 0.11639932 -0.2189931 0.83194953 -2.0472174 -1.2896172 -2.0771806 0.3203811 0.874963 1.1239324 0.70097435
C 1.1376545 -4.75901 1.4706006 0.28465012 0.072019346 -0.37722483 -0.97436935 1.6806362 -0.21411277 0.4106275
点 0.68355757 -0.8421267 -0.7016897 -0.045329206 -0.24955589 -0.26335818 0.7774957 1.3042705 -2.5221658 0.35627967
指 -1.2196927 -0.7924291 -0.45382258 0.63917017 -0.3384341 -3.1444616 -0.831977 2.431655 -1.800321 0.41575193
前 0.4421987 -0.1020889 0.42452678 -0.54773873 0.36876878 -1.4653556 0.44234243 0.36794722 -0.63144904 -0.3554097
能 -0.7503609 -2.5700893 -1.5956383 0.9028615 0.84337735 -1.5296323 0.47214752 -0.28181842 -2.0761728 0.21569715
产 -1.0953783 1.5590017 -0.29062018 -2.312729 -0.31306678 -2.4288206 -0.2864507 3.0159838 -0.9189961 -0.7745167
电 1.6332555 -0.9267929 -0.32644057 -1.3227661 1.3790483 -1.8000523 1.4514648 -0.06904404 2.3699033 0.41723922
商 -0.017376011 0.2883382 -0.7225942 -2.1463485 -0.6572262 -2.767732 -0.41748828 2.1482959 1.2569782 0.06582833
文 0.39470306 -0.15671027 3.0288177 -2.6735258 1.2491895 0.9970023 0.12507962 -0.53595215 -1.8508042 -0.13371536
报 1.5616969 -0.122079015 0.8362205 -0.6622479 -0.90208584 -1.7125359 0.98054177 1.0380207 -0.6010719 0.9596857
力 -0.82675755 -1.4670646 -0.78228295 -2.043736 0.1720692 -0.5228842 -0.4722536 -0.19877112 -0.2025235 -0.20915782
与 -0.7927613 -1.054492 0.5681059 -1.0096945 0.59915155 -0.7567593 0.30337396 0.07577411 0.41743773 0.5010914
S 1.3117247 -4.7647395 1.2974811 1.008742 0.33251983 -0.18486044 -0.1826804 1.2575749 -1.2296345 0.15337142
华 -0.8083554 -1.1802511 1.5574899 -0.86204946 0.19230518 3.6639743e-05 -0.9039509 2.1593957 0.88109684 0.23045203
品 -0.35647297 -0.11008211 -1.5039552 -2.2256444 -0.24946262 -1.8868124 -1.5559356 2.1117554 -1.8964208 -0.4371367
P 1.7036735 -5.6862626 0.8966949 0.6713967 -0.112672806 0.3968979 0.22348833 1.6562904 -0.89065015 0.63271
法 -0.40535587 0.43064797 -0.13023236 -1.548345 0.97919536 -1.7239954 1.384342 0.949627 1.2234045 1.9713988
明 0.044262804 -0.25437564 1.3824353 -0.39058208 1.4967088 -0.33422363 0.7217014 0.61949295 0.07070364 -2.014672
作 -2.1441178 -0.5161605 -0.9158704 -0.7757783 0.25302097 -2.4145212 1.7785081 0.7211832 1.182125 1.9174328
内 0.41151485 0.59282994 -0.1750981 -0.60662884 0.5933979 -0.87176573 -0.015545213 2.911459 -0.04529701 0.1786608
加 -0.48179924 -1.125615 1.3467871 -0.12862687 -0.36738142 -1.4590533 -0.5828779 1.5208476 0.43545124 -0.22897795
工 -0.47491655 1.8103727 -0.34484708 -2.9203005 1.658468 -1.9783926 0.018109018 0.6126029 -1.6811111 0.90138817
京 2.323592 -1.640196 0.64615774 -0.86741364 1.1059936 -2.7586184 -2.1837327 2.8789804 0.7346946 2.2701883
西 -0.7434153 -2.1256049 1.8089688 0.3545862 2.370732 -1.9266658 -1.9987159 1.7896571 1.3091474 -0.6555222
可 0.46520737 -0.83688235 -0.020092081 -0.9517527 -0.5484552 -1.26367 1.0749006 -0.5286737 -2.239547 -0.7675983
对 0.0962405 -0.6241243 -0.43246496 -1.0302812 0.53567153 -1.4342544 1.1855769 0.35601136 1.3328253 -0.107278034
入 0.07400586 -0.13491368 -0.03542546 -1.3128582 -1.0006038 -0.58984065 0.72579086 1.4708833 -0.23429862 -0.6736529
死 0.33088496 -0.8956162 0.94901264 -0.06545779 1.5687746 -2.5234284 1.2985427 -1.750392 -4.1838527 -1.1784908
情 0.28324208 -0.6316965 -1.6699963 -2.1897435 1.0540181 0.008212984 1.8709612 -0.3337909 -0.78578776 1.1048819
斯 -0.5070796 -2.7701776 2.078487 -0.9694568 2.3555448 -2.155506 -1.1477215 0.51798195 2.494329 -1.6680309
回 0.5118704 0.11788616 0.1599093 -1.5701844 -0.23874883 -0.48180133 0.1562349 1.5162883 -0.15651314 -0.8340617
收 0.25660706 -0.35506758 -0.18920456 -0.08937573 -1.1167843 -2.2575848 -0.024247961 1.8735312 -1.5197545 -0.5892855
打 -0.2926156 -0.5902748 -1.325491 0.058028113 1.0128068 -1.7131962 1.7176583 -0.22160256 -0.602237 0.5419878
理 -0.56131434 0.94340336 0.1712309 -0.620862 0.75179005 -2.9802701 1.8856189 1.6041235 1.5771482 0.7662608
两 0.24380045 0.021071492 0.7495608 0.23719253 0.066324264 -1.9318153 0.6877355 1.1943862 -0.74425006 -1.4538052
城 0.5740889 -1.140011 1.3313746 -1.2675219 -0.2979733 0.049384944 -1.3650278 2.1733928 0.039280504 -0.8742045
多 -0.12759842 -0.21529745 1.2009825 0.18532455 0.04567603 -1.5438278 0.78174525 0.6182299 -0.8515393 -1.044401
部 0.84416765 0.9320979 0.6696264 -1.7538985 0.88616574 -2.041392 -0.09491397 1.562434 0.33950394 0.5910388
i 2.2679105 -6.1972685 -0.013580749 -1.4559718 -1.5374169 1.5412934 1.6244555 2.278506 -0.6625984 -0.07845851
周 1.2543569 -0.81653863 -0.14296815 -0.4440852 0.2817779 0.108260825 -0.1490931 2.5786886 -0.68442905 -2.7315376
民 -0.33835652 0.4554206 1.078403 -2.0593565 -1.8426162 -2.6968937 0.8873801 0.3024489 -0.20539162 0.43090513
线 1.71041 -0.2265034 -0.54118896 -0.860165 0.98836046 -0.7176291 -0.739008 2.0395575 -1.7270424 -1.3978517
数 -0.53310245 0.30227146 0.75674886 0.5493606 -1.0054353 -3.203724 1.6913853 1.2746725 -2.003105 -0.87338865
A 0.92094916 -3.7197506 0.5060255 0.2900834 -0.5708191 -0.31428692 -0.92428887 2.7500222 -0.7885234 0.242689
英 0.7346974 -1.3749053 2.8160357 0.12204509 0.734082 -0.7560482 0.60781187 1.3047949 0.6330161 2.624724
是 -0.53942114 -0.78926086 -0.23045881 -0.7229937 0.717276 -0.4485569 1.0105681 -0.15462111 -0.51822966 -1.2579442
车 1.3192047 -1.1967978 -1.1444466 -1.096462 0.26217818 -1.5595692 0.37405688 -0.39163762 -0.73373824 -0.20630306
度 -0.1394088 -1.0690422 -0.871763 0.34521103 0.121792205 -1.5502864 -0.18439953 2.1122022 -0.44831455 -1.1503304
进 1.3936703 -0.25593477 -0.23949516 -1.5071453 0.10550459 -1.0807256 -0.2430901 1.0842679 -0.45638624 0.995282
调 -1.2614194 -0.078826755 -1.6757832 -1.8901832 -1.1548302 0.51064533 1.0549498 2.8377204 -1.4897631 -1.3268743
之 0.44309634 -0.69846714 0.16015396 -1.1405358 1.4321786 0.23262471 0.89222586 0.5317698 0.77635396 -0.28522944
交 0.9792743 -0.27429768 -1.3963064 -2.55682 -0.14397241 -2.001966 -1.749304 2.2402368 -0.27459836 -1.0781109
再 0.9276095 -0.8087183 -0.2911281 -0.7565831 -0.40922967 -1.7977245 0.32219404 0.48192397 -0.4265518 -2.3777745
联 0.48255977 -2.1417716 0.8707213 -2.1223698 -0.7660942 -0.738095 -0.09827804 1.0850483 2.70374 1.0495805
合 -0.7248084 0.6045655 0.1325111 -2.4498074 1.2464944 -0.03035531 -0.64787304 1.1896781 -1.0550289 0.33289817
球 0.7246298 0.12509134 0.51493496 -2.1982083 0.64598775 0.6682482 -0.09086554 0.9388777 -1.0248908 0.091942854
第 2.4400103 -0.37962896 1.7240227 -0.8957786 1.0499084 -0.17801718 -0.31274828 3.0122905 0.17004853 -2.6995552
老 0.54364675 -0.7805063 0.21200025 -0.14629692 1.0260614 -1.7318798 1.2925987 -0.31136897 0.18837371 0.5067767
尔 -1.904365 -2.8164105 2.0731175 -0.7125086 1.0865235 -1.1782502 -0.98140484 0.341899 1.5237153 -1.1048186
总 -0.029330242 1.176216 1.0924628 -3.6003203 1.677882 -0.81404394 0.052544907 0.39385018 0.53438413 -1.5145272
经 -0.68065524 1.1922457 1.3563187 -2.852444 1.0515707 -0.95390844 -0.24106422 0.4088404 -0.8835936 -2.2666938
亿 1.2578543 -0.5165999 2.5499613 0.9940172 -0.33631942 -0.62263256 1.0359515 3.1883056 -3.4104474 -0.62281847
东 -0.75961477 -1.5330038 1.7595662 -0.11306183 0.20764135 -1.7513357 -2.1095636 2.7329144 0.04769182 0.5925524
O 0.9066096 -5.36754 0.9023361 0.12998123 2.0815935 1.1724907 -0.66834587 3.9555936 0.5354091 1.5830845
员 0.23372005 0.91769975 -0.7419248 -2.6074631 0.8494603 -3.1997266 0.62284225 0.41887578 0.106458485 2.0161316
山 0.07667604 -1.0914613 0.32920042 -0.51416737 -0.19074628 -1.1744342 -0.9276753 2.1031854 0.26735917 -1.1208011
体 -0.8995227 -0.050131347 0.3745878 -3.4943323 0.23715611 -0.78574836 0.090063125 0.09431062 -0.1138746 2.52611
巴 -1.123218 -3.0075886 1.9296602 -2.1038957 1.427996 -1.8519824 -1.2767059 0.317049 2.4478695 -2.4814584
D 1.3231192 -5.5004816 0.68635094 1.4873 0.3396854 -0.9909476 -0.7702215 1.5884659 -1.1074847 -0.107190445
招 0.02541909 -0.08696784 1.1775559 -1.2547613 0.58576876 -2.182779 -1.502848 0.9589318 -2.389331 1.2015476
% 1.82904 -1.823787 1.1219147 1.0027139 0.3748142 -0.79797196 -0.17123578 3.2341821 -3.872008 -1.0658363
I 0.47418806 -5.647896 0.5847941 0.5520288 -0.5281311 -1.3536077 -1.721623 2.3675127 -0.103017755 -0.11678771
王 -0.17180492 -0.3491783 0.8686059 -0.9418639 1.6382093 -0.34246162 0.5847721 0.58129734 0.7394944 0.30092078
传 0.52304155 -1.9689811 -0.14754553 -1.6426523 1.4081892 0.22601669 0.7742884 -0.41946763 1.4957981 0.5474678
要 -1.8018477 0.18690987 -0.20245819 -1.2117407 0.17954321 -1.8723902 1.332506 0.6023637 -0.57716674 1.3927351
强 -0.87981284 -0.33381385 0.456458 -0.87938243 -0.7175497 -1.0194896 0.2587055 1.0312713 -0.7622427 -0.45151472
比 -0.3425235 -0.5144266 2.8043268 -0.059067935 0.36682 -1.0517075 0.08048682 0.9274453 -0.31784746 -2.585784
戏 1.5691255 -2.6899362 -2.6735523 -1.1515019 3.8875482 -0.6734845 -1.2599488 0.53931975 -0.11970079 -1.7933258
通 1.2791457 -0.5094647 -0.72919106 -0.84017736 0.22561799 -0.5902485 0.10497315 2.5579643 0.6262462 0.020814897
心 0.5909439 0.2152456 0.34159267 -2.6159503 0.60060257 0.100663655 0.44168988 0.19581763 -0.27264336 -0.22989355
马 -0.77803963 -2.5182505 0.65815425 -0.20478626 1.6588274 -0.8187764 -0.11680886 0.7128698 1.5067711 -1.8300731
世 -1.0724587 -2.4505246 2.8011374 -1.8969034 1.437814 1.0024695 -1.1486337 1.2901766 1.8191516 -0.56828725
超 0.4690231 -0.8623233 0.62345165 0.15085654 -0.5098465 0.1654051 0.79595506 1.8742062 -1.1088315 -1.1328125
热 2.042709 -0.35328957 -0.75218904 -1.9105854 -0.0013268708 -0.5570425 0.7402958 0.5939553 -0.45220572 -0.6995738
亚 0.472248 -1.4192388 2.3215833 -0.9256965 1.0970198 -1.421706 -0.8288841 1.0094326 1.6289693 -1.7721928
星 -0.20467463 -0.9846609 0.45008066 -0.89419615 2.0907385 0.9423269 0.33099115 0.9500248 0.32236844 -0.8333148
军 -0.34273338 -0.49882373 1.4326518 -1.7196307 -0.29597312 0.20250468 1.471321 0.8899578 1.3716335 -0.009883178
获 -0.2713559 0.28376275 0.95101374 0.08455146 0.052704506 -1.5789526 1.3834447 0.69089085 -1.1118321 -1.1609728
证 -1.7595042 0.37030554 -0.43074182 -2.1465864 -0.7484316 -1.3136933 -0.6633225 2.5010495 -0.5745593 -0.39753512
级 1.2298455 -0.6270394 0.6804121 -0.67230374 -1.5454572 -0.34135273 0.34904966 2.2448292 -1.727346 -0.18680756
o 1.5117816 -7.14559 -0.5953518 -1.9048389 -1.4454483 1.8364856 2.4189765 2.586116 0.03391264 -0.18795933
定 -0.5065983 0.1116628 -0.07211067 -1.4250903 -0.46543092 -0.14996395 0.80917794 1.0664786 -0.7956739 -1.1823006
计 0.77570987 -0.33438495 -1.3200685 -0.30339372 1.3365265 1.656965 1.1868129 3.1492145 -2.4655378 0.47320226
科 -1.5171233 -0.2799336 1.7973742 1.0231735 1.755279 -2.4041004 -0.033110257 1.3228358 -0.21379007 -0.4144769
关 -0.769223 -0.8979815 0.07219757 -1.2782387 -1.0206411 1.1934164 2.7498703 0.4249334 -1.1207507 0.476072
无 -0.6809051 -0.47446373 -0.16740876 -1.0942376 0.20876858 -0.63373816 1.2768985 -0.23731272 -0.76694673 -0.47720817
信 -0.8902266 -0.15528557 0.20611395 -1.4696732 -0.29903457 -0.4499257 0.24909057 1.9848275 0.51562 0.5179703
受 -0.39435956 -0.25975096 -0.06264919 -0.11642917 0.25665742 -1.1647775 1.6909522 0.036273584 -1.5683187 -0.6345617
门 1.0594285 -0.12836117 -0.1861534 -0.96148473 1.4022784 -1.2532883 -0.021520773 0.5542063 -0.38919187 0.047943562
用 -0.29213208 -0.13016582 -0.5869133 -1.3608036 0.10647052 -1.8195913 0.24402972 0.4408425 0.31462818 -0.16451687
试 1.3393219 -0.3433677 -0.18793947 -1.2317349 -0.9086734 -1.1293193 1.4996369 0.78798574 -1.1957828 2.208096
港 -0.15243725 -0.008717536 -0.24254256 0.43475214 -0.38590077 -2.6690505 -0.20783485 2.9147959 -2.0581858 1.414469
来 -0.04338893 -0.65584266 -0.26257175 -0.63470834 0.1833752 -0.5003888 0.85807085 0.44290668 -1.1602725 -2.097053
持 -1.8294415 -0.78887177 0.7746826 -0.6873723 -0.80050486 -1.44595 -0.62727153 0.9911602 -1.3226153 -0.22599144
台 1.7105494 -0.170157 -0.82060045 -0.34897938 2.3356745 -0.40581742 0.012438556 2.2137778 0.20665805 0.6564762
司 0.60276043 -1.3935113 -2.4943008 -1.7768924 -1.4117963 -3.7330368 0.12723456 1.2342426 0.7081405 0.62024254
涨 0.2626356 -1.3163937 -0.83307844 -0.10789171 -0.30723256 -0.4961299 -0.70484924 3.0656364 -2.7923627 -2.4271598
保 -1.6092117 -0.24777564 0.75007415 -0.9453318 -0.07286773 -1.6587409 -0.38944528 1.0453684 -0.07156251 -0.5154388
遭 -0.80398965 -0.22182806 -0.3064396 -1.6961651 0.10643306 -1.0098779 1.1223067 -0.26427045 -0.74769944 -0.27345008
好 -0.97917366 -0.56297696 0.15483643 -1.889782 0.60597503 -0.5191497 0.7565003 -0.6546638 -0.29375947 -0.6988858
外 0.24764186 0.13224384 0.11398117 -1.254179 0.18194026 -1.6718148 0.09011829 1.1931713 0.7398771 0.36452025
专 -2.641009 0.88704693 0.75042117 -2.675245 -0.10763279 -1.7980105 -0.6077599 2.298793 -0.26405954 0.23761484
低 1.4157451 -0.55314595 0.17497757 -0.30341288 -1.6600758 -2.0285416 0.67267543 1.6512847 -1.3154901 -1.09029
评 0.61796826 0.5766674 0.15234639 -0.6321066 -1.2604817 -0.37246013 2.0973744 3.3311124 -1.1336782 -0.057535388
选 0.3263502 0.013054205 0.29405093 -0.98125446 0.24434334 -1.4139715 0.07530753 0.85159755 0.007052624 -0.06795275
个 1.5014774 -0.014121246 0.3946083 0.23565988 1.0772145 -1.568042 -0.058545917 1.1134164 -1.7025127 -0.9732748
研 0.65940773 -1.8026123 2.1456723 -1.167874 -1.6087364 -2.5611625 -0.31654269 1.1538961 -0.86366075 3.3876045
事 -1.3245808 1.7830976 0.3247578 -2.3421366 0.9000953 -1.7625328 1.519134 0.20875455 -1.1329687 -1.0978358
南 -2.0413234 -0.9058711 1.5212855 0.019191783 0.031168208 -0.5287396 -1.0543913 3.6255488 0.11776263 -0.1779734
光 -1.2752054 -1.1409862 -0.114699416 0.90296066 3.2654815 0.49855754 0.97347367 1.6899828 -0.35913575 0.9854991
特 -0.5237962 -1.0610762 1.8006879 -0.7997614 -0.03870346 -1.3258749 0.03675307 -0.24783096 0.16176346 -0.69430614
提 0.3530923 0.44451255 -0.6617852 -1.8558733 -0.030558972 -2.0485237 0.11831221 0.40782034 -1.3802505 0.59316105
尼 -0.24178351 -3.9525893 1.8829643 0.65659994 1.8888427 -1.2341365 -0.844114 0.6849327 1.2086091 -1.6355208
G 1.8703717 -4.465403 0.53015506 0.79746795 0.6927488 -0.09768882 -0.94749033 1.6665218 -0.8452242 0.23728962
跌 0.65810144 -1.5180633 -0.45727032 0.00873548 -1.198206 -0.6447316 0.3403564 2.8893368 -2.3692915 -2.1550233
预 2.4849815 -0.44604993 0.70068735 -1.3709139 -2.625969 -0.61592525 1.5271283 2.899745 -0.31955937 0.34607086
建 -0.06461866 0.7313996 0.22757195 -1.7018944 1.1821094 -0.15628706 -0.32915848 2.216072 -0.27595177 1.1773399
阿 -1.7530618 -2.4446714 1.8353724 -2.3838036 1.3672467 1.712027 0.24561334 0.69672686 1.6621244 -0.60820293
楼 2.2818358 -0.6260676 0.05909314 -0.87505174 -0.9737623 -1.7463957 0.46302733 0.8663135 -1.1598632 -2.3029752
e 1.7052476 -5.794962 -0.18881825 -2.2709146 -0.8091376 1.0636292 1.7019794 2.004242 0.43245122 0.06284635
务 -0.54628056 1.1415447 -1.3483467 -3.325561 -0.22882475 -3.0792902 -0.50397205 2.1528099 -0.09077211 1.6531082
升 0.9030815 -0.7593126 -0.6857784 -0.5100288 -0.22258167 -0.10065465 -0.2726662 2.5243049 -1.9779761 -0.86039543
视 -0.73137623 -0.6221174 -1.4622968 -1.2225702 0.9495158 0.068378374 2.658288 1.0187631 1.3606507 0.4966824
L 1.7886114 -4.6957026 1.1254823 0.85617334 1.4034525 0.24003588 -0.2668972 2.78535 0.42024302 1.3845955
投 -0.065490946 1.3478271 0.27535424 -2.1812034 0.6749131 -2.399177 -0.21364151 1.5976386 -0.036677875 -2.6177776
T 1.7864778 -4.4954853 0.53685486 0.742407 -0.47052878 -0.38733432 -0.45313025 2.7015653 -0.09824316 0.72226995
性 -0.8377498 -0.7229929 -0.039756306 -1.9322175 0.25042966 -0.58998555 0.8359505 -0.95145714 -1.2443392 -0.73616964
火 1.8181801 -1.5829891 -1.3020967 -0.51012415 0.36319372 -1.4049864 0.58001316 -0.1680527 -0.7240658 -0.25820184
购 -0.343778 -0.8279491 -0.32064286 -0.7365056 -2.1462767 -0.5583853 0.9744515 1.6724795 -1.3367903 -0.24267459
身 -0.29699183 -0.273508 0.3608576 -1.0695581 0.009010605 -1.6875823 0.7827845 -0.77569216 -2.3839626 -0.5901107
精 2.8002203 -1.0365977 0.5037502 -0.15765303 0.8569641 -1.8399831 1.7873203 0.42893112 1.1754779 -0.38427013
四 0.52058893 -0.30628714 1.187668 0.78596497 0.22741902 -1.1224964 0.60892546 3.1430016 0.56241506 -0.8049452
政 0.16662665 0.84500825 0.25541216 -3.0233126 -0.1727648 -0.5729711 1.3403759 2.645926 1.5150881 1.8003963
续 0.33129674 -0.9503718 -1.2254689 -1.3088276 0.42234424 -1.0834649 -1.1139647 0.64124113 -3.116139 -0.088211544
复 -1.338473 -0.4725189 0.007366849 -1.2209132 0.12929903 -1.1404052 -0.38442212 0.5039472 -1.2450321 0.9844325
相 1.2072055 -2.029422 -1.6194471 -0.55439276 1.3274665 -0.66966224 0.24374986 0.054193687 -0.3834212 -0.8856936
增 -0.86984885 -0.68594044 0.8448826 0.84170145 0.46488836 -2.8800485 -0.42426595 1.3598862 -0.8411632 -1.7056276
装 2.4854095 -1.0801374 0.055048946 -0.20546333 0.30448055 -1.8966495 0.24940372 0.7801629 -0.2953847 -0.16286679
卡 -0.62707496 -2.1552622 -0.14212784 -0.22511311 0.90101933 -1.2610753 0.3850889 0.5060806 1.7082368 -0.69376415
米 0.33828613 -1.4289078 3.0473282 1.209788 0.9028997 -0.93634325 0.56210554 1.8138427 0.11816787 -0.22137621
安 -0.12747326 0.0646708 1.3172507 -1.8855813 0.1426884 -0.46181315 -0.56498736 1.9462821 0.50521827 0.36076012
友 -0.94093615 -1.410488 0.14348015 -2.6100986 0.85173243 -1.9548167 1.901008 -2.614199 -0.19107786 0.57791585
师 -1.3692456 -0.06286743 0.31281605 -0.23234344 1.2933533 -1.9670458 1.2739174 0.84730095 0.43229893 1.131677
演 -0.14946827 -1.0953534 -1.5385021 -1.464756 2.295785 -0.015889207 -0.5686004 0.35753044 -0.7940346 0.2219461
实 -0.086969845 -0.023837449 -0.18250738 -1.7071009 -0.3746282 -1.5025425 -0.1152295 0.3783712 -0.7941792 0.4647259
制 -0.8801086 -0.5375439 -1.466354 -1.573838 -0.118393555 -1.3923821 0.35389572 0.38676992 -0.6673808 0.5457333
格 -0.24618688 -0.5119718 1.6827143 -1.7160943 -1.3170217 -1.5181917 -1.0143703 1.0718257 -0.6373227 -2.2091117
次 1.5223622 -0.5178802 -1.0431077 0.2303107 1.7963523 -1.2328992 0.14864057 1.4269803 -1.2262617 -1.5255157
杀 -1.0514714 -1.3801255 -0.49634635 -0.23345448 2.0564053 -1.3446726 1.3470643 -1.2193524 -1.6908956 0.3942452
面 0.8700922 -0.8879479 -0.45010808 -1.6195294 -0.37364876 -0.49804685 -0.10167962 0.6809055 -0.5511351 -0.5727751
放 2.0357225 0.07447301 -0.54021406 -1.6000429 -0.004366443 -1.0874208 1.298454 0.2763487 -0.40373465 -0.6673402
解 -0.13313435 0.7052821 0.50735956 -1.3970631 1.2243632 -0.7193157 2.1912267 0.19652966 0.08103933 0.85370415
队 0.18481801 0.22368196 0.6059577 -1.0418017 1.8397387 -0.6634795 0.07616455 0.7410341 -0.3064992 0.66233104
n 1.2335457 -6.1292324 -0.06397602 -1.5631658 -1.4069682 0.93754685 1.7659221 2.2518828 -0.11134918 0.36484283
二 1.0186381 -0.5938052 1.2857388 0.6431197 -0.17474678 -1.3358133 1.2957486 2.4646873 1.1501579 -1.7783576
未 -0.5800108 -0.16486776 -0.87485355 -1.0921874 0.19236045 -0.9826176 1.2483072 0.20875296 -1.2048792 -1.3402307
反 -0.21564439 -1.0483751 -0.19337443 -1.9775423 -1.6756655 -1.0272751 1.4326493 -0.17700087 -0.22833046 -0.7562895
均 2.2894838 -0.22574468 1.8028842 -1.1146134 -1.219262 -2.8649814 0.29949147 2.2197905 -3.5571573 -1.5845642
同 -1.1326162 -0.46167624 0.67678076 -0.21921931 -0.18406521 -1.2710655 1.203325 0.7817188 0.32324025 0.54276776
折 1.209694 -0.00839285 0.81755865 0.24240367 1.548958 -1.44799 0.9691944 1.4732006 -4.5703387 -0.6795002
季 1.5849048 -0.8626959 0.6314475 -1.1211163 0.4416322 -0.59879684 -0.45982677 3.1093738 0.85280615 -3.1125991
货 0.31365073 -1.2691358 -0.49261895 -1.3597578 -2.2880242 -1.0727313 -0.31047198 2.8627565 -1.5608464 -0.3612534
银 0.61878633 -0.30064306 -0.3053135 -2.096085 -0.8117388 -0.79464775 -0.5350255 3.1842997 -0.03466481 2.3723776
题 -1.8254126 -0.9408636 -0.96743965 -2.4456224 0.68932813 -0.671182 0.9051946 -0.91072756 -1.5357387 2.1742685
录 0.7937721 -0.015361044 2.26606 -1.380487 0.32555956 -2.4648838 -0.5230503 -0.5932066 -2.189681 -1.5329462
拉 0.047314484 -2.078635 2.0071795 -0.84189504 0.67342466 -0.9827474 -0.6184979 0.7125466 1.6725256 -1.1635555
校 -0.21463199 0.3245603 0.852781 -0.41074818 1.4880033 -2.8371303 -0.29841775 1.2084194 -1.6521446 2.0825853
到 0.023467207 -0.69939274 -0.41592374 -0.42363867 -0.39593944 -0.029271603 1.1564485 0.75918 -1.7453812 -0.64503205
头 -0.92120945 -1.3424908 -0.28632578 0.111921355 0.85510904 -0.06757821 1.1136642 0.42161644 -0.5981044 -0.28108126
过 0.12292039 -0.5759502 -0.030269839 -0.3218127 0.20191829 -0.28274384 0.5519239 0.89871067 -0.6465788 -1.0970377
区 0.97967297 0.30716386 0.40057728 -0.89879453 0.29112545 -1.115162 -0.11277379 1.9611427 0.08962376 -0.13176113
变 -1.4550594 -0.3155507 -0.07423817 -0.42657608 1.9624939 -0.45537877 0.62246543 0.12475974 -1.368027 0.36629412
型 -0.7625086 -0.1509422 -0.2749082 0.20626141 -0.0439351 -3.2621944 1.1991014 0.46314642 -0.55282986 -1.5992271
别 1.9245081 -0.9901283 0.82517886 -0.8277654 -1.1668283 -3.1006145 1.2657413 -0.6002139 -1.4030854 0.97371614
E 1.311625 -4.799824 1.1610632 1.0134877 -0.12060686 -0.4366258 -1.1012666 2.667814 -0.543228 0.600499
德 -1.2588637 -1.2286758 2.1112745 -0.95980024 1.1041843 -0.575066 -0.0943113 1.5104725 2.0068848 0.31674516
神 0.75762385 -2.2408278 0.09601871 -0.63113713 2.00026 0.5339527 1.1492953 0.28872442 1.3148515 0.17957757
走 -0.8357098 -0.8864542 -1.2277687 -0.83838916 -0.2649039 -0.55387 0.2858916 1.2683636 -1.7260647 -0.96781945
和 -0.5075331 -0.25896722 0.5655856 -1.0802926 0.28774336 -0.76548374 0.21368752 1.013267 0.32178095 0.036224693
a 1.2748069 -6.471297 0.028812759 -1.9137393 -1.2056412 1.7092623 1.7984084 2.0445254 0.24167193 0.023845764
曝 -1.5496292 -1.4598358 0.16622822 -0.2771818 1.6935737 -0.55472213 1.3995693 -0.63021106 -1.3432605 1.5137281
伤 -0.65349185 -0.4599771 -0.21090513 -0.08557091 2.074709 -1.0017182 1.2120911 -0.35351986 -2.988564 -0.39025658
取 -0.07507468 -0.11291104 -1.1318376 1.1084955 0.78160757 -2.2003348 2.2257628 1.739432 -1.1532959 1.4545201
克 -0.85543495 -2.4331322 2.343394 -0.21906626 1.4806752 -0.7360909 -0.41860268 0.50511426 1.2730484 -0.6512287
正 1.2966232 -0.36766252 -1.0656605 -1.0560336 -0.26680344 -2.3834438 0.63232785 1.2402214 0.76391447 0.4930367
应 -1.2765877 -0.32792225 -0.34204966 -1.918701 -0.54360855 -0.8787159 0.7412768 0.7949451 0.23168656 -0.34420854
士 -0.15104528 -1.9684337 2.1238112 -0.83168614 1.7565691 0.66658294 -0.65310353 0.50550014 -0.15529066 1.4702511
告 1.005674 -1.4962007 -0.41763976 -1.2722547 -0.7879296 -0.3209008 -0.43327984 0.41212785 -1.825667 0.6530132
案 -0.43409762 0.17909949 -0.6256336 -1.2950492 -0.10283764 -1.8759112 1.8235024 -0.1026953 -0.7883216 0.71113193
板 0.8082412 0.20476757 -1.5214181 -0.8225332 1.2377677 -1.776351 0.2679818 1.3297455 -0.67408115 -2.034153
因 -0.9320894 -0.36672816 0.44638455 -1.3659164 0.35233325 -1.2259429 0.92556703 -0.36523145 -0.57341444 -0.28127462
户 -0.21983577 0.040236272 -0.1944666 0.467859 0.1334103 -4.119931 2.2502565 0.77272075 0.68553215 -1.15412
局 0.192821 0.62264895 -1.1934879 -1.9350224 0.43673748 -0.98056895 0.83196205 1.6205058 0.0909892 0.2854813
意 -1.9657686 -0.0655528 1.9569136 -1.5946906 0.19123602 -0.38918877 0.5754012 -0.07073511 -0.57928914 -0.64227635
奥 -0.430834 -1.8105595 1.3704777 -0.97926086 1.869883 -1.5598974 -0.7350567 1.1334599 2.0941672 -0.55287546
者 -0.694272 -0.015471304 -0.72278535 -2.1006138 0.64824253 -1.2417592 1.1626732 -0.4549168 -0.49254414 -0.475874
化 -1.1483006 0.078783646 0.22009967 -0.26047748 0.9082876 -1.5449075 1.1839012 0.4490578 -0.20256989 0.5258405
索 -0.45989338 -3.2698417 1.2786499 0.49734628 0.8343689 -2.0909646 -0.3220034 -0.7717568 0.6312164 -1.2439635
红 0.9109654 -0.427972 0.28207248 -0.29462317 0.5510528 -1.131002 0.9988907 0.67045325 0.20424367 -0.9817497
议 -0.025985204 0.24451576 -0.22132598 -2.6062152 0.5421653 -0.51717716 0.30506414 1.4557669 0.023452938 2.2920415
难 -0.7990508 -0.26587206 -0.27588177 -1.5825744 -0.43348324 -0.75032187 1.2813493 -0.004811957 -0.67108095 -0.35562006
任 -0.54515666 -0.21449044 -0.026817985 -1.7641187 1.5046787 -1.0686253 -0.81161165 0.5547117 0.28476804 0.15139103
罗 -0.9337868 -3.349233 1.7426032 -0.22770359 0.5611924 -1.282507 -1.1360704 1.2217021 2.0013344 -0.8391167
院 0.54762316 0.6049213 0.5625658 -1.5131239 0.78802645 -2.275412 -0.21116243 1.1395553 -0.7037731 1.9019542
乐 -0.7198076 -0.7392522 0.6563025 -0.56814337 0.7366464 -0.41583464 0.7982587 -0.37595555 -1.0400926 0.21890335
间 1.2471131 -0.47344506 -1.4755332 -0.6988957 -0.21636634 0.13572633 2.335147 1.5771568 -0.12482515 -0.26568362
富 -1.4564946 -1.2235031 0.3536511 -1.6022046 1.2403533 0.13214524 -0.70107377 1.5658703 1.4710075 0.23365802
势 -0.98177713 -1.0467038 -1.4781121 -0.53795797 -0.8414617 -0.94324213 0.90917325 1.3016521 -1.5704608 -1.2323825
风 -0.8709928 -0.74109215 -0.7787495 -0.8441278 -0.15595381 0.13985701 1.5600749 1.0692494 0.069991164 -0.40912282
水 0.2759426 -0.5807754 0.22384655 -0.7308463 0.25997943 -0.10806366 0.42306483 0.8268202 -0.33746907 0.062356204
达 -0.13514568 -0.8456009 1.0773666 0.014862612 0.32365716 -0.89691406 -0.43586016 1.1450016 -0.6058921 -0.90508366
影 -0.4231793 -1.9091824 -2.1384182 -1.3031429 1.0995437 -0.66529423 1.2512037 0.70649636 1.8637873 0.85050017
认 -1.4017003 -1.638041 -0.4938056 -0.19655421 0.50327325 -1.0074881 0.67112267 -0.4203209 -1.0036817 0.10082921
林 -1.2696028 -1.1247218 1.4032617 -0.41254547 0.9517 -0.29157388 -0.15247452 0.9009923 0.46408516 0.10897864
今 1.5257663 0.28646225 0.4630322 0.32638526 0.91075015 -1.5160018 -0.19171086 2.4110162 -1.3881344 -1.3959932
儿 -0.34604844 -0.792285 1.5419456 -0.81608975 2.5428975 -1.8151283 2.393938 -1.5801325 0.5467188 0.7611875
婚 -1.3809141 -0.4675929 -0.3534396 -1.245101 0.9364203 -0.37314457 1.6737274 -0.032706402 -0.07145991 -0.34164977
代 1.095889 -0.5854303 -0.5510824 -1.2344201 0.7190139 -0.08275715 1.4387544 0.44233721 0.5420912 -0.94194
岁 1.4152962 -1.6555163 2.1710503 1.0478382 3.0279448 -1.276781 0.8130374 -0.8384921 -2.7099833 -0.5177649
费 -0.6872663 -0.9005958 -1.2644714 0.1993913 -0.34051242 -1.2573264 1.3262538 1.2201083 -0.8553311 1.566752
击 0.5636159 -0.901943 -0.33614996 -1.1062378 1.1898668 0.14761442 0.9293332 -0.5051584 -1.2213026 -0.34828532
位 -0.07018624 0.19173168 0.24502847 -0.7772128 0.07292795 -1.4977984 -0.36234292 1.5879221 -1.8488293 0.3977722
款 1.5720679 -0.23849906 0.7073191 -0.6351656 -0.49089524 -0.895492 -0.05119233 1.7309004 -2.5000033 0.06487215
向 -0.85098064 -0.6453073 0.15885615 -1.5118533 -0.22883499 -0.8139542 -0.17826708 0.9931808 0.4126719 -0.2541711
销 3.6691592 -0.8083997 -1.1194658 -1.501896 -0.11283527 -1.1820906 0.051441945 1.0141405 -1.9529854 0.14570214
查 1.7846907 -0.10957847 1.7565837 -2.7613084 -0.08859762 -0.4459985 1.0360891 0.71620536 0.87719244 1.3349828
活 0.36655974 -0.42092985 0.83377725 -2.3752928 0.5795729 -2.0386703 -1.476831 -0.08870763 -0.025498584 0.0056603965
B 0.4834161 -4.524722 1.1890249 0.6127886 -0.53272337 -0.34865028 -1.0068542 2.3003693 -0.34245893 0.11718417
空 0.64028484 -0.3389459 0.40602306 -1.2653178 0.1886664 -0.24233879 0.62248045 0.58815515 -0.20501581 -0.7714328
统 1.0585175 -0.7234293 0.63111675 -2.7430394 -0.33493575 -1.8788235 1.9190258 -0.26996228 2.3604562 1.3151369
留 -1.1006553 0.0021684703 1.9326328 -0.99806595 0.19585459 -1.3768355 -0.10115116 1.2884353 -0.6861664 1.748112
降 0.9915514 -1.1217687 0.099782616 0.48289582 -0.36484763 -0.6881352 0.43430814 1.914508 -1.51994 -1.580921
创 -0.63493466 -0.31056327 -0.7004887 0.07638574 0.6154655 -1.320085 -0.39644396 2.0623856 -0.7334446 -0.7973391
香 -0.4693542 -1.1031861 2.7671359 -1.105408 -1.7504653 0.19791314 -0.4394176 2.5224998 -1.6130556 1.2537929
失 -0.3250411 -0.52026516 -0.117449954 -0.5118894 0.66928595 -0.3024977 1.2818524 -0.18099713 -1.954966 -0.07160268
单 -0.16252066 -0.35668927 -0.06347811 0.27002484 1.0356236 -2.1448278 0.68979627 0.556243 -0.18087444 -0.20392013
展 1.347895 -0.789676 -0.62671614 -1.664702 -0.2466272 -2.4023373 -0.61713094 0.8693871 0.76600647 -0.43821573
当 -0.3954117 -0.51795906 0.092893906 -1.1681893 0.49273917 -1.4191147 0.7866558 -0.25904173 0.18201451 -0.5281617
争 0.8642173 -0.44261506 0.09132255 -2.0499609 1.3894782 -0.08364876 0.7168738 0.103860855 0.86903465 0.5484816
至 1.3660197 -1.1223869 0.6628449 0.6318661 -0.4759726 -0.98767793 0.5641678 2.043557 -3.0387275 -1.0829955
双 0.44503698 -1.1460673 0.1996391 -0.077923276 0.40171358 -0.8658249 0.40779877 0.3928149 -0.31816 -0.35408562
百 0.048967224 0.12617333 1.0943652 1.1328514 0.8053843 -1.2959203 0.7870822 2.0570202 -1.2862594 -0.7286055
界 1.408614 -0.68809265 -0.36359048 -1.8912681 3.6779332 1.5723262 0.29426932 2.8032136 0.67538124 -1.0666339
已 -0.76768553 0.22313704 -0.37573832 -1.0167639 0.57538867 -1.0487243 0.9318528 0.5093711 -0.85268474 -1.0760624
或 0.16135685 -0.74900335 -1.1806566 -0.78871626 -0.29705337 -1.3758917 -0.16593422 1.0807917 -1.8138324 -1.0682933
约 0.55050564 -1.2425025 -0.3994275 0.3524368 -0.40294173 -1.302602 0.311666 1.8916657 0.12350959 1.2785769
爆 1.230667 -0.61201245 -0.6095405 -1.5587336 0.037684914 -1.5117486 0.6748874 -0.32062787 -0.35779938 -1.098854
版 0.333802 -2.0280545 -0.37788397 0.16203505 0.63173085 -0.8050164 0.2681867 0.32367876 -0.005102679 -0.2876939
警 -0.41973504 0.09330652 -0.6071474 -1.6787127 -0.16969676 -1.6334311 0.6363517 0.6821901 -0.5069544 0.85358053
引 0.049770955 -0.98984545 -0.5989076 -1.1548462 -0.8200532 -1.9793262 0.038158312 0.62549114 0.5993321 -0.8474822
看 -0.6507648 -0.6866398 -0.5015087 -0.83394253 -0.17851843 -0.41825563 0.9134528 0.4456952 -1.2853264 -0.46271333
我 -1.0350015 -0.38831043 0.8291561 -1.6161605 1.2164742 -0.14255254 0.9527716 0.061672278 0.24937463 0.85413647
广 0.14233643 -1.7734646 -0.16253117 -0.122430384 -1.4846984 -1.3743656 -0.28658345 2.4771657 1.0439416 0.41146412
领 -0.36947912 -0.9230039 -0.6043026 -0.45916143 -0.1632678 -0.7562179 0.28936976 0.8839343 -0.69209194 0.06132663
博 0.40848482 -1.0660903 -0.33471823 -0.5185775 1.7569321 -0.8511479 0.8605643 0.43906325 1.5773499 -0.28137985
半 0.30700684 -0.18759486 -0.45763314 0.7319572 1.9957278 -1.1784443 -0.49898398 2.8122563 -1.6985432 -1.8021419
际 0.22068885 0.10005202 2.3901284 -0.70403314 1.0975095 -0.4611671 0.18825774 2.977279 1.0921513 1.1350317
式 1.6700433 -0.6732029 -0.2697692 -2.6766813 -0.35766846 -1.8841356 0.12914844 -0.47263694 -0.26495504 0.4845423
M 1.0095044 -4.79053 0.9708981 0.89982736 0.12173921 -0.46874744 -0.30630296 1.8586609 0.08258092 0.04965632
张 -0.72128314 -1.010354 1.0639265 -0.37513024 0.75359404 0.33074528 0.107391454 0.8935621 -0.4059511 0.8004917
求 -2.29078 -0.28830388 0.94325733 -2.5182621 -1.2001668 -1.6631219 0.41994253 -0.16874468 -1.4546918 0.3225249
教 -0.7921668 0.072971694 0.22996745 -1.9846015 2.3097343 -1.218453 0.9359012 -0.1896635 -0.116562724 2.550764
易 0.28467914 -0.46258602 -0.91045916 -2.034704 -0.92008203 -2.7439141 -0.5397995 1.290947 -0.16586545 0.08443745
感 -1.2618147 -0.6771371 -0.43956602 -1.7362686 0.96756744 -0.41507572 1.2418699 -0.38077882 -0.08020058 -0.15053447
油 -0.25856766 -0.40374088 0.8069526 -1.6283191 -1.5663663 -0.6202026 -0.54500765 2.0145786 -1.2469583 -0.6029976
结 0.4542126 -0.37419853 -0.822553 -1.5864351 -1.0372249 -0.42750198 1.8876519 0.39751607 -0.85506207 -0.6395597
色 -0.47911453 -0.5026543 -0.48953646 -0.46055314 0.41238806 -0.5500595 1.5105796 0.72305787 0.2052301 -1.3415896
连 -0.3442738 -0.9399874 0.49669042 0.23002264 0.4743577 -0.0313496 0.25508595 1.3691787 -1.0608327 -0.883541
所 0.63829535 -0.040078886 -0.21958293 -0.7929458 0.69088686 -1.515551 -0.52606094 1.3740522 -1.148569 0.4437872
客 0.1714174 -1.4654156 -1.5464265 -0.23435237 1.8621459 -0.5726633 0.5789551 0.120398834 -0.068108805 -1.3439021
宝 -0.7547564 -0.7719276 0.2363977 -1.0921508 0.66944104 -0.3707237 -0.18203782 1.0617025 0.63755316 -0.36360124
系 -0.23036048 -0.027708746 0.21463904 -2.7932363 0.75876015 1.015372 1.1228675 0.20998077 -0.17007107 -0.012187469
节 -0.058545247 -0.36637124 -0.70669216 -1.0815653 0.5054126 -0.34451565 1.2632524 0.21240065 -0.7647242 -0.09744415
目 0.022346329 -0.39148545 -0.4563154 -0.804821 -1.0963416 -1.6302619 0.965029 0.7874754 -1.0757482 -0.034578644
独 0.99320185 -1.2198968 1.3636013 -0.36892727 -0.6086747 -0.9596943 1.0446322 0.22934663 -0.6653 -0.037675906
花 0.41472775 -0.27149653 1.1824577 0.051580396 0.55884236 -0.39573193 1.4496511 0.5803776 -0.70221955 -0.032206133
造 -1.3455784 -1.0364184 -0.89409626 -0.62791866 0.25832647 -1.3093159 0.7714754 -0.043296993 -0.46492067 0.16819519
阳 -0.7796896 -0.99464 0.53515244 -0.061785035 1.236122 -0.73946965 -0.75039285 1.4613913 -0.9470004 1.0409421
其 -0.9242447 -0.7383592 -0.68670374 -1.6237191 0.86257505 -1.4633656 0.75966835 -0.6299701 -0.37620047 -0.12380007
问 -1.6813917 -0.49777743 0.5367563 -2.5734687 -0.22467801 0.05595301 1.5068842 0.21306607 0.71847457 -0.47929114
破 0.24224286 -0.72218454 -0.20524207 -0.07386851 -0.2015067 -0.5195852 1.1593782 0.49795067 -1.6466019 -0.725199
夫 -1.9419459 -1.1828952 1.2265345 -1.0561284 1.1066487 -0.95289737 1.352669 -1.4198403 -0.08087187 -0.061001446
五 0.25575426 -0.20220326 0.8823761 0.72937244 0.9091386 -0.7385356 0.48741278 2.0429661 -0.36247754 -0.96631175
近 0.802859 -0.49412104 0.832527 0.14335918 -0.79573876 -0.8205176 0.49337935 1.7177315 -1.9477268 -0.80397004
测 1.2421272 -1.0623686 -1.3554715 -1.1685847 -1.3885273 -0.11244002 0.32075268 1.6843983 -1.4932375 0.47810507
转 -0.90369976 -0.6391503 -1.2853866 -0.80873895 -0.020532606 -0.80279744 0.68506825 1.221121 0.21167234 -0.09237587
底 1.2050946 -0.5980045 -0.2829601 0.3003245 -0.02374692 -1.3710113 0.41260773 1.5091014 -1.5728679 -0.82851857
佳 0.7798126 -2.8527217 0.20036985 -0.41348958 -0.15635417 -1.7056638 0.21242543 -1.4357522 -1.2205981 -0.4453105
决 0.5805389 -0.70963717 0.32293084 -2.0160265 0.03391891 -0.9996212 1.2074417 0.95081633 2.2092285 -0.046922058
亡 -0.013260636 -0.27488017 0.18367831 0.2833216 3.574577 -1.4144851 2.193977 -0.25799793 -3.2314148 -0.27101946
少 0.06396136 -0.65124846 1.3857106 1.0738281 1.3102845 -1.216835 1.0523356 0.56891966 -1.7390543 -0.9626722
V 1.0980204 -4.6118894 1.1321713 0.75135577 -0.18662225 -0.16504712 -0.62126786 1.6501309 -0.43094236 0.26008818
物 -0.7209964 0.27555168 0.31518266 -1.8783467 0.23737162 -1.1215469 0.1318794 0.42828628 -0.17700304 -0.4428492
于 0.22124581 -0.50905156 0.080638275 0.42498812 0.44302687 -1.1990033 0.32173857 1.2613872 -1.5870477 -0.6443998
里 -0.63461334 -2.0979507 1.2388117 -0.51652217 1.1587921 -1.1718228 -0.4122599 0.55226654 1.5174886 -1.064526
运 -0.70636284 -0.42286003 -0.063745335 -2.0400608 0.77449876 -0.019982524 -0.2415638 1.1709472 1.0767965 -0.9162208
集 -0.49160662 -0.29710487 -0.0746024 -1.5599554 0.22618346 -0.06206455 0.14482243 1.2547001 0.021603063 -0.34693494
致 0.1421281 -0.7285368 -0.15185854 -0.13287511 1.0345614 -0.43845937 0.84384656 0.20124821 -1.5065345 -0.2739217
李 -0.8192581 -0.9065737 1.1629096 -0.5440463 1.1699271 -0.28188077 0.9811931 0.49631923 0.54150504 -0.27343774
F 1.3614734 -4.0146146 0.6926941 0.86637515 0.39205468 -0.28891206 -0.41387957 2.2169917 -0.10348005 -0.17606483
望 -1.3638623 -0.31728965 0.31258056 -1.0153139 0.46404734 -0.3993802 0.31939477 0.6190225 -0.8589003 -0.763356
站 0.8907615 -1.7539077 -0.86950254 -1.3842903 -0.8936859 -1.2395464 0.8785911 -0.25018147 0.42495918 -0.7444274
玩 -0.554469 -0.9443606 -0.2104059 -1.6240554 0.52337396 -0.098316684 0.34294298 0.31939065 -0.50575405 0.75147027
欧 0.14585194 -0.70008856 2.3180847 0.2084509 -0.1323722 -0.17051336 0.5481174 1.9801302 0.25810495 0.642862
兰 0.18967734 -2.197894 1.8546765 -0.16558793 -0.11290995 -0.32285848 0.33084652 0.59779716 0.5428147 -0.92553806
官 -0.44947082 0.14437552 -0.8530973 -1.865297 0.03796581 -1.5280039 0.7440834 1.0150238 0.011276072 1.7305588
爱 -0.3708231 -1.1266712 0.40433455 -0.7805038 1.2328721 -0.5198239 1.1961641 -0.82713115 -0.29717305 0.32012862
快 0.27932382 -0.88864625 0.77069455 -0.47633928 0.14261883 -0.032724936 0.526354 1.4241592 0.01598792 -0.020182824
他 -0.65416205 -0.4239929 -0.09069569 -1.5129844 0.9671107 -0.5617668 0.9169641 -0.21564676 -0.4270596 -0.3567204
州 0.7793391 -1.8806963 0.6131714 -0.68537706 0.42071047 -0.6493761 -1.2006865 1.9571335 0.8429184 0.17786217
何 -1.4340519 -0.3406753 0.50367963 -1.0985765 1.0779632 -0.7264178 1.4041387 -0.053857435 0.20367979 -1.1047071
送 -0.23769075 -0.56843185 0.36926547 -0.1372414 0.47124496 -1.0490307 0.56216556 0.24477783 -0.70827156 0.42266995
r 1.0520629 -5.200138 -0.4699492 -1.859866 -0.9213611 0.923721 1.7727461 1.7060252 0.33898145 0.13316263
冠 -0.2572206 -1.033483 1.8675458 -0.8407782 2.1415641 0.9248822 0.6768966 0.953772 0.7266014 0.30797777
量 0.1376788 -0.48560962 -1.0184051 -1.0535458 -0.59279865 -1.2923471 -0.11763107 1.1596378 -1.3525543 -0.94899404
片 0.1467745 -0.8739356 -1.1814971 -0.6279588 1.3217896 -0.8990633 1.0250815 0.42240933 0.32005903 -1.0053147
导 -1.8509407 -1.0754163 -0.13145687 -0.8604769 -0.88521427 -1.1056173 0.26629257 0.2883535 -1.3873588 0.058316767
路 0.054724015 -0.34627837 -0.27288088 -0.9934942 0.6050241 -0.6045342 -0.19435407 1.0856944 -0.4138341 -0.032277226
疑 -1.5957729 -0.5099174 -0.082178526 -1.5649954 1.4945526 -1.2608176 1.518396 -1.1212968 -0.81096584 0.37703973
优 -0.8035818 0.053217754 0.56271607 -0.20210123 -0.17414871 -1.1398019 0.76858383 0.88623494 -2.6626067 -0.36939073
流 -0.76125944 -0.53196883 -0.7102592 -1.3094287 0.48634782 -1.1424385 -0.078162454 0.37608218 -0.22576742 -0.3603317
江 -1.0738559 -1.5014628 0.7749662 0.21657 1.0091563 -0.5144097 -0.9534535 1.7058327 -0.50511986 0.651248
得 0.14471067 -0.9692336 -0.4276706 -0.38983113 0.32210392 -0.6211195 1.4618746 -0.06048558 -0.6427486 -0.45387432
待 0.6443282 -1.312772 -0.0640493 -0.55250216 -2.1160655 -0.94577634 -0.07094444 1.8387014 -1.3544433 -0.4684013
值 0.2665482 -0.37320012 0.7221149 -0.37924904 -1.470278 -1.0691811 0.6454895 1.642819 -1.7023244 -1.5044196
震 -0.3077002 0.34243965 -0.5829952 -1.8821716 -0.70184535 0.23251021 0.011358609 3.6798186 -1.0835456 0.018754972
改 -1.0996281 0.007817359 -0.97573036 -1.3292339 1.1021038 -0.98467916 1.3778496 0.25398517 -0.10034719 -0.061753962
口 -0.30472425 -0.5127448 0.34308025 -1.0430415 0.17779998 -0.35812604 0.5369922 0.16051236 -0.73913664 -0.37706053
清 -0.7210495 -0.9639688 0.11971563 -0.21486574 0.30510432 -0.77633053 -0.034071892 1.1710587 -0.32096422 1.1478789
表 1.1385283 -0.45140854 -0.32261488 -2.1224055 0.3028977 -1.3866413 0.5324313 -0.5872541 -0.3883465 -0.81371
谈 -1.2852576 -0.49100274 -0.62598425 -1.5126948 0.66438705 -0.6781265 1.1587591 0.16405898 -0.41042268 0.6786165
X 1.4283836 -4.3084784 1.1854663 1.0410045 0.59396744 0.060694747 -0.15276705 1.4912558 -1.1752588 0.34373108
胜 0.13024701 -0.7099823 1.1922272 -0.29536012 0.669937 -0.6009914 0.201923 0.6303038 -0.35298246 -1.5861871
技 -0.5602356 -0.54551953 1.9309353 -1.1398349 1.4301454 -1.5533899 -0.06330326 -0.80720496 -0.24321486 0.107545316
弹 -0.030900683 -0.40246075 -1.3568468 -0.65747607 1.0486424 -1.6500132 1.3818725 -0.16574399 -0.52579755 -0.5311565
l 1.3371545 -5.2487607 -0.5117464 -2.1770642 -1.0946134 0.88643926 1.7932245 1.5788101 0.43888545 0.08919554
陈 -1.093385 -0.90552956 0.717267 -0.8258495 1.0551542 -0.100129716 1.1067296 0.28453875 0.37912288 0.18717375
以 -0.38825455 -0.3096327 -0.31187844 -0.8458279 0.19316822 -0.666366 0.34570754 0.80350053 -1.2160859 -0.8453103
助 -0.41539654 -0.47698256 0.11523047 -0.52102894 0.6349713 -1.4930032 0.5412664 0.28577784 0.2404659 1.0208458
园 0.7302069 -0.22264269 0.89296174 0.11668802 0.77573115 -1.6795183 0.020560093 1.1266809 -0.12617877 0.4198454
足 0.086894214 0.34453303 0.9098724 -0.9720291 1.6060269 -0.25675628 0.80397654 0.88796777 -0.08938586 1.1490726
职 -1.1520942 0.4755484 0.15725401 -2.1598423 0.2718852 -1.5647321 -0.4614771 0.85593474 -0.18309405 0.43605018
道 0.13226463 -0.84695065 -0.29497868 -1.1604972 0.5447316 -0.21871655 0.19559376 0.43393478 -0.25984508 0.17885835
离 0.20629726 -0.7053088 -0.4949696 -1.0416112 0.5305049 -0.95171595 1.1073732 -0.4718932 -0.53718233 -0.112114556
启 1.539914 -0.025563769 -0.3118524 -2.0211856 0.58827347 -1.7573212 -0.43715477 1.3656758 0.8988402 -0.17716335
套 1.5537128 -1.7581611 -0.38109303 0.19574368 -0.33324248 -1.5233524 -0.08279578 0.31913075 -1.2315695 -1.6676623
划 2.49205 -0.026566936 0.8427955 -2.3258746 -2.4085681 -1.2248367 1.5159488 0.7803579 -0.9726676 -0.28372654
享 0.8186725 -0.4742001 0.1569775 0.29057458 1.0348027 -1.6684763 1.0013801 0.95005715 -3.6350198 0.045703884
卖 0.2337869 -0.6453836 -0.5497311 -0.44725564 0.46989036 -0.6146063 0.7041522 0.3937713 -1.6700691 0.15322992
环 -0.13544394 -0.8695524 1.2952245 -0.8149991 0.43446392 -0.68334645 -1.266625 2.610706 -0.16447365 -0.21894364
批 0.16091074 0.3950574 0.5546445 -1.086568 0.03214273 -1.4846505 0.35444534 1.259056 -0.5372783 -1.6490605
只 0.36458644 -0.53339165 0.41176954 -0.18656987 0.64046186 -0.79589087 0.42198178 0.574065 -1.3731009 -1.092681
韩 0.47315428 0.076831646 1.8054532 -1.1838295 0.8806984 -0.46564445 0.42637435 1.9642558 1.1643478 1.3596513
十 -0.26053166 0.09110692 1.0288578 0.73503566 1.1974578 -0.9379022 0.8994331 1.6395257 -0.725352 -1.1754855
轮 1.1909784 -0.8417569 0.051133666 -0.88356787 0.61748344 -0.81524515 0.26120827 0.9472662 0.41884416 -1.4137539
奇 0.47877845 -2.1546667 0.21281202 -0.7527396 1.79832 0.39094767 0.92251664 0.033280976 0.985309 -0.0009343033
号 1.9552914 -0.27135906 0.26150277 -0.21134134 0.48020184 -0.8450953 0.34235078 1.3852597 -1.1701638 -0.2161622
完 -0.3981175 -0.043633386 1.3864982 -2.2325296 -0.19850166 0.38406387 0.16210446 0.7838727 -1.2105688 -0.26554838
件 -0.0902922 -0.06703205 0.065040685 -1.1326034 0.6597438 -0.66300476 0.6440241 0.3636031 -0.3248945 0.3725158
龙 -0.620624 -1.2687639 0.07292153 -0.21589394 1.3766401 -0.17659089 -0.039817385 0.895443 -0.22554572 -0.45204994
买 -0.20132293 -0.5215716 -0.4698768 -0.91875166 -0.55929565 -0.7022914 0.6082653 0.8444893 -1.1726501 -0.49022162
墅 1.6528602 -1.2606366 1.1910738 -1.0322181 -1.383215 -2.8061848 1.5060282 -0.6043607 -3.397053 0.3931529
办 -0.21103625 0.25045463 0.024847174 -1.4178392 -0.19811296 -1.7029557 0.17904559 0.8776967 -0.30459946 0.2959823
备 0.81861895 0.05485701 -0.31041667 -0.9774715 -0.0699815 -1.3170905 0.7531517 0.5395212 -0.89800626 0.1799115
就 -1.2389663 0.28829074 -0.18113971 -1.9141873 0.7876243 -1.0884074 0.017387087 0.6762001 -0.5258682 0.036821313
想 -0.4742633 -1.8652716 -0.45335078 -1.2781988 1.3838985 0.6426587 0.4698651 -0.2004315 0.35382614 -0.15477929
太 -0.36485362 -0.54809606 -0.062322762 -0.25279966 1.3615754 -0.54498357 0.30892074 0.9631829 -0.08509641 0.22969122
支 -0.8014506 -1.2280674 0.4070149 -0.47155577 0.056953344 -1.6546971 -0.53796834 0.32202232 -0.2857208 0.15002358
及 0.34134692 -0.23969387 0.14384358 -0.6517377 -0.22493228 -0.8438923 0.80147016 0.9836256 -0.5146067 -0.14831063
注 -0.5657074 -0.47822994 1.2016742 -1.2859979 -0.044424206 1.2216936 0.97827226 1.1437765 -1.311586 -0.35977346
团 0.1646016 -0.58244854 -0.023672223 -0.6957259 0.26648274 -0.23139006 0.28168586 0.8122663 -0.55931795 0.5272258
河 0.73418856 -0.64292055 0.3740348 -0.4152056 0.5640646 -1.2686013 -0.60752314 3.3627236 0.6849426 1.7494781
财 -0.5203745 0.84080464 0.14868912 -1.690168 1.0226667 -0.9393837 -0.3006052 2.1784942 0.10417837 -1.077934
整 1.0870187 0.6199108 1.0903288 -1.8989874 -0.6052236 -0.44490877 0.93494695 1.9575133 0.44045675 0.6708151
权 -0.83054376 -0.30170226 -0.429626 -1.0209517 -0.37636656 -1.4010725 0.070456855 0.91980845 -0.4376468 -0.48901674
亲 -1.0612926 -0.89915186 0.0047646984 -1.1712734 1.1348597 -1.0103581 1.6781175 -1.0896854 -0.21218483 0.013360018
钱 -0.25468123 -0.48489785 -0.17963645 -0.26921076 0.4570709 -1.0080243 1.023854 0.16610475 -1.1504002 -0.4762167
拍 -0.027098736 -1.1737945 -0.509414 -0.7916491 0.37063006 -0.19047847 1.3290567 -0.6546923 -0.93713003 0.047546882
准 -0.14918774 0.0036188655 0.35260975 -1.1652931 -0.6944412 -2.7874568 -0.076234974 0.5475977 -1.3224139 -0.15749753
志 -0.896091 -0.66759276 1.3950815 -1.7126178 1.00897 -0.115583986 0.5972092 -0.5554487 -0.06816841 0.36468744
术 -0.8955965 -0.6607173 0.31548622 -0.7249067 1.3357724 -1.1852125 0.5918183 -0.46744674 -0.91252005 1.23691
控 -1.1616877 -0.78727823 -0.5398901 -1.2145506 -0.4812685 -1.1300517 0.20297714 1.0143986 0.049565822 0.7295402
原 -0.5723255 -0.45703635 -0.13388604 -0.88190925 -0.1917471 -1.1925579 -0.11205604 0.8350836 -1.1320286 0.18086338
都 -0.24832717 -0.5831606 -0.45037824 -1.3764838 0.7333923 -0.61446613 -0.29434603 0.8288512 -0.1900512 -0.7453727
仅 2.4004643 -1.9472865 0.92393667 -0.018799294 -0.22955835 -0.7679682 0.25227904 1.2824254 -2.0884366 -0.38517645
规 -0.53505534 0.24112014 -0.819455 -1.4244405 0.6615884 -0.4251717 1.0989923 0.581813 -0.8324736 0.13735825
落 -0.12843452 -0.48394245 -0.9644727 -1.0280874 0.23395939 -0.24784759 0.8081117 0.87666 -0.801621 -0.70224416
显 -0.19739112 -1.1693572 0.008450714 -1.0930697 -0.11012461 -0.7606178 0.16210505 -0.11997045 -0.5773398 -0.3063326
如 -0.22799054 -0.11343963 0.3817399 -1.6019812 0.71248376 -0.4983277 1.5659492 -0.6532372 -0.51968384 -0.4787437
真 -0.31418526 -0.62795234 -0.42625552 -1.5676643 0.859458 -0.46814898 1.2909365 -0.36426163 -0.079976365 -0.08527241
语 0.18988772 -0.4922904 1.9847814 -1.2671802 0.23695147 0.3726676 0.62673575 1.3105234 -0.35512805 1.5721414
气 -0.6811203 -0.91956633 -0.20971896 -0.9330062 0.5779976 -0.35125247 0.7838792 0.18967444 -0.3439562 0.3867866
抢 -0.70719033 -1.202108 -0.79462403 -0.6974941 0.72066945 -0.238124 0.8468803 0.39216164 -0.21895863 0.3158616
讯 -0.6929652 -0.3279134 1.6916231 -1.4227206 -0.20331968 0.13356446 -0.1274222 1.4464982 -0.6113431 -0.64728516
等 0.21616751 -0.18132699 0.61632866 -0.6989713 -0.09621681 -0.69242966 -0.1474188 1.3440677 -0.82874733 -0.38411525
d 1.2135369 -3.7750933 -0.005455188 -1.0325563 -0.8288999 0.21346006 1.224637 1.4565941 -0.18590476 0.0018684753
做 -0.23650809 -0.3534449 -0.15133919 -1.7040006 0.6199665 -0.83637834 0.8513515 -0.32218423 -0.021662276 -0.8504064
企 -1.9955685 0.84337467 -0.018768387 -2.6300795 -0.198109 -1.6196866 -0.4107216 2.140173 -0.22116207 -0.60746366
秘 -0.5564541 -1.6035123 0.12036612 -0.87136596 1.6278834 0.6930059 1.3703456 0.16239744 0.4588306 0.1598273
媒 -1.1368243 -0.69772184 0.63655114 -2.657225 0.8903723 0.04453081 0.5080065 0.7277742 1.2497966 1.0142154
沪 -1.6722174 -1.038633 -0.08336676 -0.7960392 -1.7064931 -1.1953006 0.14815235 2.2221448 -1.5542014 -1.3289028
管 -1.0296116 0.8744966 -0.55978554 -1.899796 1.073141 -1.3594652 0.16925208 1.1578194 -0.40518883 -0.20719676
需 -1.0339992 -0.034010757 -0.20115523 -1.6149862 -0.74195737 -1.1969001 0.90388536 0.5634318 -0.9321387 0.114754625
标 -0.4380686 -0.07090543 0.9855764 -1.5441726 -1.7597842 -0.5642267 0.34643045 1.7988732 -0.9167499 -0.36012995
牛 -0.10087104 -0.6606506 0.42273793 -0.75490767 -0.7811927 -1.7299441 0.09184574 0.80638045 -0.016439902 -0.7950951
排 0.5279805 -0.16829196 0.48169562 -0.4591757 0.89557725 -1.1491905 0.6693303 0.70735323 0.053243157 1.2648546
接 -0.5214838 -0.82754344 -0.1971767 -0.7807334 0.8720419 -0.57724446 0.52308613 0.08585329 -0.63924783 -0.6030476
幅 0.39053407 -0.9195257 0.11451136 0.13122669 -0.9847559 -1.816971 0.21759728 2.390959 -1.2876155 -2.0004234
武 0.46096587 -1.5363375 0.46056062 -0.16363992 1.6469004 -1.0369387 0.5975432 0.062307175 0.9181832 0.3386928
记 0.44894144 -0.104990356 -0.31098276 -0.5870111 0.62181944 -0.8887167 1.3922344 0.5054463 0.017123964 -0.3769273
N 1.1918075 -4.482488 1.0900062 0.69837487 0.20004411 0.033280957 -0.21236475 1.8898143 -0.39209196 0.025972249
防 -0.64820546 -0.6489121 0.21083733 -0.566154 0.88351935 -0.8347228 0.32560495 0.537483 -0.027988857 0.26599538
亮 1.254154 -1.6237011 -0.866337 0.35999426 0.9735009 -0.734349 2.1576567 0.61915827 0.5987123 0.28521252
千 0.27045336 -0.07700446 1.4585806 1.357034 0.37533304 -0.84124696 1.2907761 2.2264562 -2.0604222 -0.17936663
先 -0.26353207 -0.61514217 -0.28357312 -0.78479 0.2411595 -0.7384651 0.32270393 0.20990103 -1.2348119 0.014729823
攻 -0.06753445 -0.81668764 -0.40820637 -0.98103535 0.97221917 -0.13846791 0.45513338 0.52146953 -0.30991706 -0.41387656
六 0.90294856 -0.040413465 0.5683925 0.5368941 0.6637981 -0.8427714 0.55642384 2.4266684 -1.0281228 -0.33805183
奖 -1.2527893 -0.068160124 0.6987274 0.3648538 0.21271574 -1.3796531 1.1311271 1.6351241 0.05571798 -0.4994637
险 -1.1766654 0.24697836 -0.07878757 -1.3538042 0.33605877 -0.8225573 0.5783895 1.0505924 -0.42891765 -0.36404827
非 -0.49929416 0.16314803 0.3798997 -1.5671611 0.7256046 -0.97426987 0.66231716 0.87796277 0.4180114 1.0555916
孩 -0.38348472 -0.68740004 1.5815854 -1.3628911 2.2355704 -2.5506952 2.2729216 -2.0901225 -0.022747878 -0.22870259
歌 0.60823834 -1.0958145 -0.25155044 -0.76885235 0.99660647 0.066160984 1.2769378 0.4178267 0.40162358 0.7950798
仍 -0.19057396 -0.2642841 -0.21950197 -1.195206 -0.47376382 -0.862142 0.8642266 0.6813172 -1.1415229 -0.9115722
券 -0.7472544 0.25886917 -0.73720247 -2.2269325 -0.4458129 -1.8027015 -1.1382158 2.891598 -0.5883113 0.04848378
尚 0.7141667 -1.0425401 -0.8254553 -0.030237868 0.19531088 0.24985646 2.7565546 1.7788237 0.62453383 -0.18223116
礼 -0.5945524 -0.4135192 0.21730249 -0.78157586 0.4543287 -0.42812967 1.2520633 0.218128 -0.98073983 -0.13215892
立 -0.041381013 -0.30553707 0.3959781 -1.2094262 0.43009275 -0.8681465 -0.2814201 1.1360854 -0.1458895 0.32752246
停 0.3272264 -0.788281 -0.39995065 -0.43472868 -0.6640031 -1.1822593 0.2650701 1.1669827 -0.713988 -1.0167758
深 -0.39606375 -0.50864947 0.07549406 -0.2134314 -0.45094377 -0.8457932 0.021632267 1.4733353 -0.9196822 -0.9243292
黑 0.40463826 -1.1438543 0.20414716 -1.0587366 0.92890346 -0.5530989 0.728484 -0.17979091 0.55512446 -0.5970705
黄 -1.2286125 -0.3505608 -0.45781347 -0.068561696 0.040009707 -1.2761174 0.8125222 2.4295905 0.735237 -0.8745665
票 -0.101770625 -0.1951804 -1.0663666 -0.47910988 -0.67923325 -1.3405453 0.6485186 2.1631334 -0.20752609 -0.5695356
福 -0.1281537 -0.41558707 0.6787469 -1.1460531 0.7772649 -0.093589544 0.29299203 0.7574878 0.21390028 0.096330605
纪 -0.2182483 0.574736 -0.5078269 0.05633465 2.37412 -1.0733218 1.1871661 2.1258645 0.3627476 0.7540102
秀 -0.038308594 -0.8928712 0.13594837 -0.43215412 0.2559682 -0.34796578 1.3117551 0.6146109 -0.115414314 0.2305562
维 -1.2966998 -1.4651593 1.373977 -0.8896297 -0.14592542 -1.2683728 -0.9377012 0.6904738 0.22970457 -0.69609445
朝 -0.39309525 -0.8381285 0.4416836 -0.54295117 1.8481745 0.09201876 0.15027326 2.0363607 0.34358123 1.6589091
s 0.988458 -4.077913 0.046661142 -1.1745412 -0.6607118 0.72153014 1.4839901 1.2811894 0.28476754 -0.11285412
普 -0.06681831 -1.1698891 0.44655585 0.5057352 -0.45005715 -0.95420927 -0.082086995 2.0358016 -0.7594779 -0.8602967
示 0.056731228 -0.56962854 -0.06677983 -1.3538612 -0.16618283 -0.33345446 1.377716 0.020270642 -0.2502181 0.6135968
服 0.94497275 0.04027689 -0.32158625 -1.6186733 0.907095 -0.97936356 0.08711267 0.88458997 0.7536553 0.16013102
云 -0.057208832 -0.675551 0.9374278 -0.70369095 0.981692 -0.3860259 0.3276292 0.7154246 0.4603637 0.3129053
析 -0.14721468 -0.12011327 1.1428125 0.0037753934 0.6051423 -1.8089192 2.2607539 0.37353018 -0.18732136 1.516605
论 -0.82208025 0.039648525 0.026520513 -1.4940122 0.12718888 0.29245564 0.776512 1.0655353 -1.1287273 -0.23068294
盛 -0.18650286 -0.20674579 0.09277349 -0.6411927 0.8214805 -0.64150536 0.021889592 1.5373291 0.49413386 -0.501724
湖 0.75456476 -1.2659032 0.9235511 0.10331153 0.5570936 -1.8900263 -0.34353402 1.7981001 0.64442176 2.1516242
梦 -0.013609525 -2.3752978 -0.5875849 -1.1536835 1.6363035 -0.02079619 0.627552 -0.19306843 1.0528809 -0.45803377
冲 -0.20299032 -0.5588837 -0.37088925 -0.40249097 0.2865963 -0.5931697 1.3919178 0.56953895 -0.8003611 -0.8752772
判 -1.1764363 -0.061233815 -0.06302944 -0.84590185 1.5273038 -1.1443264 1.4814632 -0.098315746 -1.1028595 0.1449472
密 -0.38814783 -1.063602 -0.4107464 -0.94946 0.67451704 -0.50465876 0.60695606 0.40239483 0.5379931 -0.61239606
白 -0.3510655 -0.5646723 -0.26722938 -1.2162559 0.41616634 -0.13132967 0.5887574 0.5153622 -0.44149023 -0.12835194
豪 -0.8460861 -0.8017421 0.5604992 -1.4176824 0.34662527 -0.10608001 0.131143 0.33826858 0.045613512 -0.4835776
见 -0.53843427 -0.57734746 -0.5513213 -1.2988212 0.76251644 -0.2672208 0.8611756 0.44558024 0.09161281 0.06202988
核 -0.24032073 -0.9299918 -0.40581626 -0.74890053 0.87376976 -1.1990519 0.27653664 0.5860202 0.617119 0.8063945
宣 2.5362542 -1.0954168 -1.3890209 -1.9465319 1.227722 -0.21303609 0.7222002 1.6068496 1.3905746 1.0520877
速 -0.11450014 -0.77835596 -0.06612043 -0.2825541 -0.38411 -1.000076 0.06385153 1.080498 -1.1885823 -0.50140905
席 -0.32032183 -0.9495595 -1.0641065 -1.9841096 1.3415 -1.1877456 -1.1409559 0.2795085 -0.6010559 0.0011382065
惠 -0.9561024 0.039341416 1.2132502 0.079735085 -0.07229548 -0.9204415 0.7111644 1.2959749 -2.0192113 -0.5589671
观 -0.3227115 -0.3001971 -0.538351 -1.3680971 0.76271576 -0.42366195 0.82429695 0.58046657 0.13436548 0.40040562
曾 -0.9947608 -0.72848076 0.11990931 -0.96479326 1.065773 -0.46335822 0.81092054 -0.07471943 -0.27460715 0.07815744
遇 -0.6952559 -0.89271146 -0.6792276 -0.7813255 0.3010749 -1.0879719 0.6562694 0.15435892 -0.66127354 -0.18822402
微 0.5793101 -1.5421151 0.18556383 -1.0178883 1.0270194 -0.8464215 -0.023681233 0.40212926 1.3773439 -0.42995766
假 -0.38374498 -0.3010635 -0.15157966 -0.7624279 0.54762244 -0.64963704 0.57053846 0.35526726 -0.73344463 -0.13103038
派 0.8282151 -0.6276338 0.18289708 -0.519724 0.18720599 -0.93576103 0.282336 0.4071544 -0.53095263 -0.5279018
突 0.63993496 -0.3540249 -0.4458101 -0.58383274 0.033486575 -1.1589676 1.3212299 0.3674529 -1.5620192 -0.64697796
初 0.80462635 -0.10562054 0.86289805 -1.1833475 0.023584088 -1.4202466 -0.4457991 0.8580581 -1.1389278 -0.072394095
还 -0.6262123 -0.4926161 0.0061339336 -0.86515003 0.65749073 -0.4625016 0.8746478 0.34827927 -0.8282192 -0.5805758
育 -1.2346003 0.5520792 -0.25504822 -1.9718034 2.1826224 -1.3560319 0.54275274 0.9763397 0.94968003 0.8061968
春 0.18190107 -0.7528879 0.11804943 -0.11716091 1.3388808 -0.41754997 0.3547098 1.0779697 -0.001664703 -0.38957056
愿 -1.6107601 -0.7668519 0.58269334 -1.7066727 0.11981938 -0.64936036 1.0753044 -0.5192668 -0.6473494 0.67458946
果 -0.7538717 -0.8073018 -0.2104997 -1.2094923 -0.38283873 0.5332759 2.1988623 0.68197393 -0.2834029 -0.45288464
H 0.7023243 -4.0160837 0.89098364 1.0142955 0.16246644 -0.096772134 -0.22392018 1.6448961 -0.6766442 0.37887657
减 -0.57862633 -0.8823909 0.42320773 -0.18693735 -0.28161874 -1.3591259 -0.24885161 0.67513776 -1.3409054 -0.5920504
青 -0.21991788 -0.64670134 0.97712165 0.117875695 1.8486274 -0.33529523 0.073011115 0.77530336 -0.56935054 -0.29384422
率 0.19551706 -0.5423296 0.8742368 -0.044390947 -0.1592169 -0.9134527 0.34814703 0.7742063 -1.0826389 -0.8476678
府 -0.7763391 -1.2136364 -0.93593436 -1.9382857 -0.09898579 -0.022195598 0.46055147 1.7455026 1.2695091 1.0068427
质 -0.98819715 0.55865085 -0.16707434 -1.6279683 0.2537801 -1.4696862 0.8873012 0.51651734 -0.638763 -0.009346454
牌 -0.46303985 0.25987187 -0.23692846 -1.3112817 -0.11389278 -1.405592 0.5559344 1.0277157 -0.00025335263 -0.35150993
让 -0.58924186 -1.0187775 -0.0041128704 -1.4664611 0.6377447 -0.71376574 0.74189645 -0.41805547 0.15332831 -0.05057644
签 -0.19496402 -0.49562612 0.0014240914 -0.98621386 0.006844299 -1.1774462 -0.04560737 0.8600212 -0.23293157 0.19881907
Q 0.23171137 -3.5794914 0.55331564 0.7124197 0.7769657 -0.55654985 -0.33805627 1.3769425 0.06589103 -0.17092533
俄 -0.09300248 -1.1277117 1.0239258 -1.3386203 0.7787895 -0.6732387 0.08661952 0.7085337 0.764779 0.07619791
骗 -0.26239306 -0.02744453 0.5989292 -0.57880825 0.46457133 -1.7326484 1.2371457 -0.31729108 -1.0192513 0.11180831
欲 -0.33730498 -0.5971136 0.0055160196 -1.1966176 0.21013148 -1.3589246 0.16640803 -0.09700902 -0.23409422 -0.13408522
直 1.1016697 -0.96849555 0.11467223 -0.6106007 0.1318145 -0.739751 0.7721826 0.29602545 -0.026174398 -1.0220077
短 0.15007067 -0.75234514 -0.24748838 -1.1035069 -1.5400474 -0.3164415 0.513673 2.4844751 -0.70478386 -0.29327124
举 1.3677853 -0.15108699 -0.6100189 -1.365584 0.2976823 -1.7334112 0.0926687 1.1547328 -0.056352682 1.0030602
众 -0.46313986 0.09200178 0.2106836 -1.3563057 0.7057133 -1.0726591 0.7708178 0.47010002 -0.19880745 0.5164798
去 0.24417374 0.23353784 0.24624355 -0.43545485 1.1485052 -0.35966334 0.3852098 1.3366549 -0.3859259 -0.96891016
班 -0.022136072 -1.2727739 0.3874625 -0.8123116 0.6383743 -0.6564288 -0.58077633 0.7898169 0.35296044 -0.82935804
夺 0.014170001 -1.1984891 1.0552545 -0.90244716 0.89198303 0.033473555 1.0396656 0.0046224636 0.62441045 -0.12625596
了 -0.27691352 -0.6831696 -0.27020368 -0.83342147 0.49155304 -0.1577861 0.9427131 0.26528543 -1.1739783 -0.3783732
铁 -0.2126979 0.044701084 1.0022875 -1.1894083 0.71762985 -0.30326667 0.064995475 1.7965876 -0.0040254993 0.6004546
石 -0.47778538 -0.28333962 0.3805361 -1.3236736 -0.06536508 -0.15360773 0.20068637 1.0667033 -0.5152364 0.08691824
波 -0.021552498 -1.2324013 0.347497 -0.6485794 0.38931292 -0.26551047 -0.011582465 0.69906497 0.31006745 -0.47764158
融 -0.85587454 0.24966398 -0.9292655 -0.9358825 -0.013798389 -1.9525752 0.09346452 2.9578521 1.0691926 -1.7730291
申 -0.26345712 -0.9658404 0.87172794 -0.14158209 0.047455307 -0.6035723 -0.011266152 0.96856636 -1.1542163 0.637606
设 1.6456451 0.16832072 0.57534784 -1.9197853 -0.8749832 -1.0071115 0.9682972 0.53663856 -0.13382351 0.3234916
退 -0.40917453 -0.46261948 -0.3076526 -0.9882954 0.48790595 -0.81914246 0.28988853 0.2412645 -0.7142258 -0.19021505
言 -0.39140704 -0.9033317 0.22903949 -1.0108721 1.2111602 -0.7895467 0.8869829 -0.6052061 0.18028075 -0.0697109
绩 -0.99804056 0.44043657 -0.32563207 -1.7909156 0.60444534 -1.2471769 -0.76580924 1.4182062 -1.4930999 -1.1820686
访 -1.4253378 -1.1989139 -0.49575552 -1.448122 1.1553243 -0.9847946 -0.9299278 0.5267661 0.12712142 1.2002869
程 -0.10188824 0.057283398 0.4634108 -1.0953535 0.50680923 -1.2443794 0.28382102 0.7404418 -0.22916658 0.61585385
习 -0.6640527 -0.065481074 0.29508528 -1.3244017 -0.35476702 -1.4463828 0.737189 1.015404 -1.1508948 1.412516
封 0.8630599 -0.91969806 0.118906215 -0.80123115 0.23584327 -0.6416512 0.4870597 0.37675712 0.20622629 -0.57830834
模 0.16658875 -0.5111647 -0.5231397 -0.9826897 0.19897741 -1.6614611 0.85728586 0.06621761 0.2665534 0.28895462
母 -0.61302143 -1.0774089 -0.070742324 -1.7332752 1.1605308 -1.1365488 1.685686 -1.5257941 -0.10406629 0.34589228
t 0.40922338 -4.478521 -0.048774634 -1.9599973 -1.0049124 0.724464 1.5374799 1.575569 0.23120321 0.17068042
参 0.12295346 -0.80061096 0.106633924 -1.6876265 -0.018813392 -1.2726164 -0.39280578 0.46587005 0.24292329 0.53276306
洋 0.10063328 -0.098736316 -0.22787146 -0.4898692 -0.2614859 -0.8715323 0.2671276 2.4069092 0.035394922 -0.59307
暴 -0.3197431 -0.89082676 -0.4247421 -0.62616926 -0.0031019242 -0.49267647 0.9219626 0.59316164 -0.61774194 -0.37981236
劫 -0.23137419 -1.6891724 -0.76950586 -0.5313234 0.7028298 -0.27182633 1.3489202 -0.050497208 -0.5921008 -0.33355042
景 -0.1641262 -0.091886856 0.56163126 -1.2471623 0.67590475 -0.34675953 -0.025055187 0.70764726 -0.95419574 -0.5268893
？ 0.045120172 -0.52658665 0.30625632 -0.8494369 0.5012974 -0.4404005 0.876826 0.37122926 -0.5920528 -0.33125418
湾 -0.5716836 -1.6200855 1.0348259 -0.14111583 -0.907942 -1.172587 1.0177712 0.37106773 -0.2218234 -0.16809382
功 -0.59080464 -0.65582204 -0.09312083 -1.2293429 1.1571522 -0.9962779 -0.5860172 0.0055808355 -1.3204454 -0.9143072
更 -0.65783477 -0.60813475 0.14281304 -0.4428012 0.42541134 -0.9814554 0.7982443 0.549667 -0.33599052 -0.025608957
否 -0.79512334 -0.73244524 -0.33674642 -2.6310468 -0.34944943 0.067784116 1.1113011 -0.26595342 -0.62489104 -0.6652757
登 0.39255667 -2.185289 -1.4545878 -0.14305446 0.8825052 -0.65815187 -0.24078047 0.8330986 -0.53289986 -0.3989315
没 -0.59885746 -0.53915006 0.1395506 -1.0267936 0.5685827 -0.54418594 1.1652018 0.14955528 -0.5920201 0.1596414
庆 -0.22035943 0.09929207 0.863304 -0.55316436 0.46669823 -0.7230373 0.2462826 1.5087836 -0.35994586 0.86675835
始 2.7639608 0.19574328 -0.53628767 -1.7122151 0.17047435 -1.8230234 1.1320268 1.118492 0.1911982 -0.10602655
步 0.081329726 -0.26681042 -0.18715948 -1.0486906 0.25226998 -0.5177735 0.29687384 1.0740855 -0.65288275 -1.2587804
早 0.81575984 -0.46833217 -0.97512466 -0.8511088 -0.8165374 -1.587143 0.30795324 1.5888053 -1.1277788 -0.08387153
读 -1.1781595 -0.4361797 0.8900748 -1.1815964 0.5612745 -0.8798338 0.5738976 0.3911505 -0.6719029 1.4807773
远 -0.08634487 -0.99883425 0.4429091 -0.54681665 -0.25369772 -0.5656306 -0.1211718 1.4945726 -0.13955235 -0.8114563
汇 0.013458431 -0.6114141 0.22875221 -0.44544512 -0.086981565 -0.35424817 0.6637236 1.3100603 -0.29642266 0.12751456
协 -0.14107394 -0.13132602 -0.7860401 -2.8743155 0.62749606 -0.16341549 0.32861966 0.61560494 -0.10727201 0.7336916
救 -0.03378324 -0.31793538 0.41486472 -1.1179101 0.2342194 -0.9329695 0.5742788 0.21558768 -0.27558073 -0.4924223
债 0.24091904 0.39073655 0.39528736 -1.5647658 -0.21525659 -1.2272042 -0.26180974 1.3769976 -0.1657491 -0.95186514
息 0.03735293 -0.44836175 -0.713821 -1.0719818 0.09706796 -0.37829617 0.52873963 1.5345275 -0.30072653 0.67138654
限 -0.40100548 -0.7851566 -0.9327699 -0.9483978 0.031258978 -0.47753072 0.46678132 1.0131537 -1.0411688 0.0386212
刑 -0.07668335 0.11782308 0.59806514 0.06025291 0.5612183 -1.2428317 1.2686663 0.6703982 -2.0752306 -0.6787914
知 0.1792971 0.037011467 -0.03949097 -1.1801785 0.5027346 -0.40185192 0.9589826 0.7105327 -0.060505252 0.033026062
属 -1.0308439 0.34786305 -0.3726408 -0.7984027 -0.18924733 -1.4251772 0.6816247 2.1461725 -0.11458407 -0.63586146
验 -1.1485903 -0.2735079 0.4100041 -1.0998989 0.8418445 -1.126867 0.54795474 0.15506533 0.28594244 0.8452679
幕 1.2507604 -0.5090664 -0.31337494 -1.3283125 0.7713091 -0.24442808 0.08123173 1.2079387 0.45159236 -0.3563905
唱 0.5366577 -0.93901217 -0.9516359 -1.2304071 0.24906887 -1.1358428 0.3870737 0.636049 0.4819664 0.19389924
份 0.39308652 -0.6473561 -0.30955645 0.6579102 0.31168774 -1.381944 0.31738988 1.3352276 -1.7918453 -0.13625646
伊 0.07388623 -1.2339128 1.0166527 -0.89634323 0.97221804 -0.618559 -0.27300668 0.4152418 0.6919396 -0.36838385
飞 0.38218105 -0.71353185 -0.6304759 -0.8230719 0.33666763 -0.66674256 0.41072762 0.41012958 -0.20119344 -0.2677474
住 -0.2822155 0.10953707 -0.04294305 -0.7095823 0.011345905 -1.440105 0.63817114 0.6824403 -0.6347021 -0.00957045
岛 1.0448332 -0.84475005 0.7476475 -0.34310237 0.4809478 -0.8275369 -0.22625336 1.0655516 -0.034537032 -0.62915623
卫 -0.34896085 -0.29329643 0.5180664 -0.7228624 1.3373528 -0.7651519 0.36089736 0.9413871 0.56513184 0.25880387
监 -0.384796 0.13643533 -0.4336996 -2.1176164 0.16333465 -1.2755415 0.28056356 1.4619117 0.5116375 0.9434007
包 0.023473142 -0.6106543 -0.25591215 -0.38548648 0.8079821 -0.84323066 0.902233 0.4116528 -0.38988695 -0.21243426
略 1.0313537 0.22283414 0.18580559 -1.5496231 0.8358938 -0.5618658 0.8445335 0.8337135 0.3436552 0.7666171
绝 -0.86469275 -0.8443121 0.07682045 -1.4227308 0.47833866 -0.9003913 0.60422873 -0.6201692 -0.26681274 -0.44170982
揭 0.26867464 -0.8639604 0.50670546 -1.1276158 0.9005153 0.3140273 1.6346742 0.19573121 0.6552736 0.067860745
容 -0.16963813 -0.3078594 -0.10293899 -1.4912004 0.33185259 0.005453686 0.66678447 0.6453882 -0.5329873 -0.29199162
消 -0.47619706 -0.36551476 0.3040902 -1.1092073 0.024156548 -1.5096438 -0.25083625 -0.08599887 -0.97269475 -0.82577336
荡 0.40187114 0.026655935 -1.1767153 -2.896211 -0.60941744 -0.76857287 -0.5756897 1.6285839 -2.1062217 -0.9842283
妻 -0.27552044 -0.68058616 0.98621106 -1.7312833 1.5441115 -2.2312934 1.9698495 -1.6989717 -0.109298155 -0.116725504
每 1.0462722 -0.15161915 0.5085492 0.4990645 0.19984841 -1.3635305 0.66588664 1.8523145 -1.5425771 -1.0819181
八 0.35979846 -0.1619836 0.7365067 -0.17933457 0.81388605 -0.72384304 0.43823585 1.3548614 -0.4305728 -0.9631249
济 -1.3334422 0.88646126 0.1317941 -0.2068648 1.7382741 -2.2165077 1.0109137 2.6214833 1.0087887 0.15213622
刘 -0.7144911 -1.2415711 0.8007092 -0.8638475 0.71242857 0.042359475 0.5026476 0.6366805 0.34933627 0.18450822
络 0.5498267 -2.5894847 -0.7295036 -2.8606994 -0.84697795 -1.375458 1.5222222 -1.6135374 0.09553237 -0.11904963
K 1.4294746 -3.656114 0.90810883 1.0355148 0.13885823 0.697996 0.0059234723 1.1985629 -0.5349587 -0.03587777
航 -0.4106581 -0.6661219 0.31900468 -1.0273566 0.17905608 -0.48179653 -0.050119422 1.4328625 0.25220194 0.6616571
频 1.4972482 -0.43619627 -0.49417338 -1.2521957 1.2593969 -0.5139394 2.39846 -0.06603575 0.86654496 0.2838134
带 -0.06648239 -0.39975277 -0.4871786 -0.942903 0.360078 -1.020068 0.26117224 0.6264061 -0.54677594 -0.67316836
泰 -0.6860476 -0.9612061 1.2818187 -0.5844284 0.7773324 -0.23378512 0.16560593 1.6915107 1.0975729 -0.29145998
省 0.55542606 -0.88561463 0.97857434 -0.43552494 0.13444826 -1.2076746 -0.5858741 1.4065417 -0.46557677 0.47545156
酒 -0.48905745 -0.6037932 -0.8524796 -1.117853 1.1014535 -1.0275171 0.23297527 0.49736953 -0.30728787 0.04067657
项 -0.34839246 -0.04325591 0.025901105 -1.4915466 -1.1308663 -0.6342261 0.83596253 1.1413889 -1.0469991 0.36002678
营 0.25719607 -0.019853307 -0.39528856 -1.4110171 0.056844603 -1.2930138 -0.116792865 1.3479478 0.428588 -0.1672855
书 -0.071206614 -0.0903125 0.15673746 -1.6483016 0.7269814 -0.5690304 1.0655019 0.020224323 -0.0681802 0.610573
角 0.23303185 -1.4933305 0.4496694 -1.2192327 0.75629425 -0.9610262 -0.40130818 -0.45126766 -0.1298383 -0.53981686
说 -0.42909712 -1.0445247 -0.33012095 -1.4626836 0.7432883 -0.10950244 0.9893947 0.02377021 0.018672874 0.5747483
治 -1.2830241 -0.5161796 -0.9018312 -2.2843444 0.57046235 -0.28871855 0.7390753 0.44050276 0.4703346 0.66068274
希 -0.17633806 -1.215442 1.0617579 -0.9531027 1.2775382 -0.49592215 0.37017357 -0.27804807 0.42949036 0.2324734
印 0.3216269 -1.1666054 0.8921714 -0.63678825 0.24468449 -0.7393373 0.14975011 1.1086171 0.7837548 -1.3990896
配 0.0342251 -0.46701708 0.32150918 -0.31116807 -0.0005322715 -1.2627306 0.41693926 0.59279394 -0.53411216 -0.050674647
R 1.3426647 -3.6986225 1.0832393 0.67151874 0.2043358 0.01494749 0.112620614 1.5524286 -0.65565836 0.10632428
播 0.8663294 -1.1932086 -0.7987785 -0.6809551 1.3091438 0.07887019 0.40372947 0.64551353 -0.43637264 0.11794074
病 -0.51984215 -0.3289242 -0.115198955 -1.4647803 1.4444896 -0.7099746 1.2708335 -0.4328331 -0.33984303 -0.15571886
源 -0.16325721 0.19473992 -0.06617268 -1.4429188 0.18424773 -1.7867349 -0.23311071 0.63455683 -1.026923 -1.091748
命 -0.4527297 -0.8002741 0.058692865 -1.0667758 0.94823235 -0.21427688 0.7506077 0.022065612 -0.752278 0.16303466
杯 0.25830823 -1.2668766 1.2808092 -0.9934653 1.2965391 0.4474738 -0.0074126134 1.1876588 0.3042412 -0.41682714
迷 -0.25894916 -0.6271656 -0.54134774 -1.0193955 0.8436279 -0.25190565 0.678301 0.56931967 -0.20890152 0.3375859
村 -0.28081062 0.21417575 0.8042222 -1.5654036 0.90893835 -1.0247589 -0.5177475 0.943515 -0.5922399 0.21826407
魔 -0.05267813 -1.9662836 0.4084459 -0.6643056 1.740405 -0.11094444 0.401079 0.057281148 0.8201902 0.047606513
话 -0.8600755 -1.124628 -0.24768497 -1.4792422 1.0760703 -0.028617593 1.4246956 0.010294104 0.6822325 -0.12125101
恐 -0.7218109 -0.7201644 -0.3750326 -1.203054 0.09009025 -0.5370913 0.86770934 0.3075699 -0.21326888 -0.34741187
类 -0.46850264 -0.28071293 0.4571806 -0.61060846 0.1668055 -1.1697009 0.34322095 0.69469583 -0.92156804 0.29117003
即 1.6886041 -1.3746195 -0.8183261 -0.8687762 -0.025333378 -1.8731471 0.20523624 0.98664427 0.09152762 -0.11529058
音 -0.16119412 -0.6871114 -0.06920518 -0.4836944 1.1544443 -0.26150054 0.81990427 0.7876287 -0.46156618 0.6329504
你 -0.86499065 -0.70051366 -0.14455271 -1.3354061 0.82565093 -0.3147474 0.8592807 0.13689518 -0.18943015 0.18729024
萨 -0.95721406 -1.4075259 1.0314254 -0.59107107 1.3490567 -1.6770452 -0.4059577 0.7441902 1.567885 -1.4273194
究 -0.8504947 -1.26618 0.91560227 -1.9078187 0.56675667 -1.4524311 -0.62193185 -0.25239235 -2.6183176 2.134009
帅 -0.46885887 -1.2920411 0.11824391 -1.449079 0.7930862 -0.7458787 -0.30746385 0.054292843 0.66392493 -0.3993061
迎 0.5429603 -0.5256406 -0.4843559 -0.4413 1.0581924 -0.6577919 0.43460393 1.3057469 0.08060228 -0.65860575
坦 -1.0485334 -0.91299397 1.2141763 -1.5080597 0.9636906 -1.8951374 -0.2066592 0.43421367 0.92541724 -0.680695
冰 0.01886846 -0.28176895 0.7069175 -0.8400563 1.2251151 -0.44606745 0.6999115 0.3896843 -0.11117606 -0.3903867
存 0.20281833 -0.27668235 0.38592198 -0.8705728 0.13556908 -0.83674973 -0.37768924 0.96213526 -0.7546468 0.12918772
策 -0.7756958 -0.59755504 -1.7594734 -1.9058405 0.2806699 -0.1914558 0.53786576 1.3842826 0.4559862 0.44227713
土 -0.17028506 0.33340633 0.2234568 -1.1702739 0.3307081 -1.0483391 0.24744144 1.7392256 0.12732066 0.06906309
照 -0.27469045 -0.84108645 -0.7457769 -0.98748654 1.2516701 -0.4027903 1.5185134 0.0987532 0.014129846 0.12554827
苏 -0.46496212 -1.2403094 1.0465354 -0.34480727 -0.068353 -0.59601426 -0.18006141 0.8074552 -0.13922535 0.45799878
从 -0.089151904 -0.7447802 0.37243053 -0.4168198 0.37635583 -0.66569245 0.83382857 0.31514212 -0.522638 -0.022724539
终 0.076618426 -0.9062695 -0.20365676 -0.7245269 0.3941533 -0.37067562 0.637681 0.51551986 -0.14330816 0.012406982
纳 -0.76877147 -1.2587396 0.6793311 -0.26449877 0.9428931 -0.7390828 0.52413493 0.42550698 0.70990723 -0.533039
继 -0.3339352 -1.1598816 -0.83130425 -1.583533 -1.4882667 -0.7817389 0.56701314 0.9889161 -1.3514681 -0.92860407
器 0.0021957045 -0.9183226 -0.28090504 -0.735312 0.8713613 -0.1316936 0.5960764 0.39070567 0.014165476 -0.23142692
义 -1.4629414 -1.0075579 0.1511973 -0.6682151 0.9437459 -0.5626211 0.0915935 0.99197257 0.3133965 0.5358501
典 -0.42571178 0.1241707 0.13172324 -0.1947911 1.0327874 -1.2756822 0.67908293 1.5028831 0.5416515 -0.08406211
剧 -0.6885857 -0.30334347 -0.09943806 -0.9482021 1.0107334 0.5106493 1.211924 0.9946233 -0.24071284 -0.08615595
种 0.13447769 0.10915118 0.5013097 -0.64548165 0.080772705 -1.162749 0.5544615 1.1152459 -0.12452686 -0.075523995
余 0.47799286 -0.39344886 1.6593965 0.8062024 0.5695286 -1.0877482 0.5955896 1.0566427 -1.9021621 -0.5141355
补 -0.21888141 -0.945864 -0.45366076 -0.4429073 -0.17103049 -0.6772798 -0.02133431 0.64755785 -1.4022129 -0.2976498
洲 -0.6987663 -0.49574265 1.6302437 -0.47407693 0.6709956 -0.28246844 0.26217967 2.13177 1.1897403 0.17216483
巨 -0.3124661 -0.24304399 0.20093875 -0.4691277 0.63870025 -1.4019244 0.46090215 0.43977234 -0.36034858 -1.067762
常 0.37557146 -0.09153169 0.2914583 -1.4405532 0.6739875 -0.74891895 0.5674449 0.40458953 -0.26809746 0.055834766
汉 -0.5084127 -0.48220533 0.36263683 -0.21065092 1.472594 -0.6233154 0.112525076 0.8342894 -0.19522628 -0.42594707
移 -0.41141266 -0.24189113 0.6527656 -2.8080626 0.7493924 -0.7225794 -1.204651 1.5514255 0.6759739 -0.07144961
给 -0.43981335 -0.9631502 0.15431648 -1.2526695 0.4611758 -0.76039183 0.563062 -0.33468994 -0.071374744 0.13966252
范 -0.95098597 -0.4662321 0.6690736 -1.2775369 1.1163255 -0.76323766 0.9529155 0.0122596845 0.004929306 0.60914874
处 -0.18651052 -0.06969741 0.003870181 -1.1354711 0.92036754 -0.4662818 0.75451344 -0.09123721 -0.8647973 -0.540064
店 0.2529777 -0.5383572 -0.32240567 -1.3367261 -0.10485555 -1.5744504 0.7847543 -0.37113336 -0.41419947 -0.23814736
确 -0.55572855 -0.3990293 -0.59262824 -1.8510219 -0.4201013 -0.1308918 1.2112124 0.6786064 -1.0343316 -0.8078755
瑞 -0.39190358 -0.19023691 0.4986921 -1.403295 0.5361395 0.013332349 -0.34736896 2.1347485 0.665378 -0.051697697
W 1.2755951 -3.0772357 0.6701965 0.74934614 0.28403097 0.031018417 0.22118406 1.0114079 -0.75667584 -0.10086839
征 -0.048553288 -0.58974016 -0.48872632 -0.94014 0.4238467 -0.3265896 0.7027167 0.96565485 -0.13081744 0.42835692
h 0.9485342 -4.100294 0.10361376 -0.67896444 -0.28640598 0.29328534 0.79254246 1.6769062 -0.149846 -0.010353288
益 -0.06732701 -0.60050094 -0.51410556 -0.382561 -1.2210246 -1.3629258 1.0169951 1.5499309 -0.6571515 -0.047994573
满 -0.051221933 -0.59518796 -0.24270405 -0.48546317 0.8913808 -0.9512981 1.6433039 0.015641684 -0.16211605 0.2361811
农 -0.81874996 0.20596735 -0.14893642 -2.1465104 0.2948694 -1.3882445 -0.25971866 1.5509475 -0.13768505 0.24849793
委 -0.803961 0.43678162 -0.40394735 -2.645492 0.97920907 -1.3006383 0.018078169 1.1492251 0.115535334 1.0002632
归 -0.80860364 -0.71966094 -0.46210578 -1.1485001 0.061051987 -0.3058986 0.38389736 1.0002824 -0.40697172 -0.42175195
社 0.19692308 -0.27461538 -0.29963976 -1.428058 0.08282868 -1.0124893 -0.016863782 1.2472541 -0.02017558 0.8723777
追 -0.64234143 -0.8211012 0.09329594 -0.83161086 1.1138223 -0.5649481 0.5952599 -0.17274106 -0.5259435 0.19271374
兴 -1.150932 -0.040875852 0.518053 -0.9460877 0.3164386 -0.9467681 -0.04159738 1.6608666 0.08737017 -0.5702424
请 -0.8578632 -0.7656917 0.79888654 -0.7448299 -0.059198245 -0.71078247 0.76126325 0.22586611 -0.25319836 0.15708731
恒 -2.0276883 -0.82333297 0.6292414 -0.41673356 -0.8055662 -1.0315578 0.3961785 1.5091062 -0.8819617 -0.6502686
极 0.33936727 -0.74707514 -0.33104864 -1.0818828 0.44014496 -0.6695114 0.30028036 0.71982414 -0.016554993 0.25691646
曼 -0.49888745 -1.6706432 0.31149015 -1.13054 1.7383602 0.43171614 -0.82827926 1.4796786 0.6983891 0.22488919
袭 0.34768727 -0.60020256 -0.5907955 -0.3470975 1.0009253 -1.0462667 1.9688978 -0.20075302 -0.5788159 -0.70623875
软 0.19728835 0.10605803 -0.006419107 -1.0301664 0.60126036 -1.30299 0.69569635 0.37784463 0.042373616 -0.42718634
像 -0.028345548 -1.4129066 -0.07762704 0.047344707 0.6979726 0.1264713 1.2184603 0.52709806 -0.4531561 0.4389721
古 -0.44220808 -1.258926 0.12425743 -0.06741603 1.3947475 -0.6833803 -0.020923553 0.79023135 0.22728881 -0.30670682
篮 -0.35155767 -1.4375862 -0.08440072 -2.030384 0.6321452 -0.8333644 0.8727936 -1.4061692 0.32657507 0.025895635
康 -0.23697053 -2.2542756 0.96605796 0.5914985 0.74854445 -0.59953 -0.664512 0.81480515 0.050952133 -0.084359
章 -0.28316224 -0.32698482 1.5579593 -0.80139154 0.7393339 -1.2110279 1.3386866 0.0049678506 -0.31067374 1.0636542
列 0.050143734 -0.9606552 -0.24613664 -1.3939854 -0.0978559 -0.5618585 1.060775 0.051694315 -0.093782604 0.3926033
刺 -0.27136043 -0.73282737 0.08320048 -0.8210329 1.205704 -0.63316506 0.6280776 -0.28536773 -0.6215858 -0.23708603
吉 -0.5728554 -1.3232908 1.532206 -0.27124652 0.8581673 -0.90503234 -0.05220553 0.5603723 0.4321736 -0.42850372
拟 -0.098932795 -0.1257673 0.64005977 -0.9595033 -0.2105969 -1.3245789 -0.048607435 0.96685964 -0.4193497 0.45276454
松 -0.26213613 -1.569531 -0.6915264 -0.2440034 0.69543004 -0.19683835 0.07414041 0.9537236 -0.27854204 -0.47181803
才 -0.54996157 -0.8920872 0.29756036 -0.11686188 1.0853086 -0.47190523 0.984585 0.27298376 -0.5152316 -0.415591
拿 -0.71245956 -0.56158745 0.013460441 -0.7025287 0.1475574 -1.2948712 -0.2300351 1.6398113 -0.03479655 -0.39088055
炸 0.8996806 -0.8008208 -1.0953131 -1.5298251 0.17119534 -1.434426 1.3812104 -0.5924553 -0.8480182 0.099064544
史 -0.6215879 0.080227025 0.7867062 -0.49351624 1.1584468 -0.39880362 0.49642217 0.6716495 -1.3001133 -0.71686345
九 -0.024377262 -1.0391991 0.31956193 -0.45328432 0.34309858 -0.39716777 -0.24783427 1.5976973 0.06987372 -0.18329991
盟 -0.8571618 -1.1651659 1.2378238 -0.893467 0.6083198 0.1553593 -0.17186928 1.4085982 0.21833616 0.579997
父 -0.9487972 -0.7442353 0.22996667 -1.4525759 1.3221583 -1.1540298 1.5785993 -1.1149392 -0.23077585 -0.021955132
料 -0.23060232 0.46470073 -0.013320509 -1.5529029 -0.021854376 -0.69965875 0.09167716 1.2300632 -0.6389732 -0.9266932
轻 0.122555815 -0.89665693 0.1847914 -0.10566296 0.49838626 -1.0353118 0.3955072 0.18820791 -0.40255123 -0.3227966
倒 0.27940047 -0.20281646 -0.107887045 -1.2618623 -0.004780795 -0.6928252 0.68413025 0.76441646 -0.4734711 -0.3193215
延 0.21309733 -1.0201105 -0.906521 -1.0669807 -1.3776808 -0.88719386 0.44578093 1.471755 -1.3876432 -0.60620654
央 0.9306012 -0.071478255 -0.45473942 -1.9286976 0.70908123 -0.9549193 0.91159904 0.9208667 0.9466814 1.1202683
压 -0.7203521 -1.0869147 -0.4019451 -1.1891732 0.009764908 -1.0026668 0.3390745 0.2450513 -0.31760386 0.23319182
阵 -0.32977346 -0.6754608 -0.086507566 -0.6055374 1.3658444 -0.3296527 0.48451874 0.489943 -0.32241398 0.025365783
艺 -0.40910444 -0.83801454 1.7819251 -0.67331904 0.8566179 -1.3866959 0.6074398 -0.29976848 -0.16379802 1.1131155
仓 -0.2752139 -0.17697397 0.51501524 -0.66477114 -0.36373946 -1.243889 -0.15060695 1.3795687 -0.515063 -0.37033144
医 -0.78064203 0.46398842 1.0719653 -1.7352753 0.7922186 -1.4343066 0.15269126 0.1947951 -0.54771316 1.0937029
换 -0.34394062 -0.5551147 -0.03510338 -0.5011541 0.5744291 -0.7657469 0.88344336 0.29233277 -0.60287434 -0.28953514
净 0.17983025 -0.54202014 0.7892103 -0.49242097 0.137626 -1.5815941 0.07650801 1.6532657 -0.4931394 -2.445401
温 0.38152862 -0.6924665 0.55702615 -1.106576 -0.023024028 -0.053491935 -0.0016230566 1.313261 -0.26857266 -0.35390258
荐 1.1172377 -1.7758306 -0.6282317 -0.10369883 -0.7012361 -2.3199563 0.28248268 0.86881804 -0.60976285 0.36881208
激 -0.39643455 -0.5854045 -0.2624253 -1.3510125 0.5116183 -0.041722443 0.9508811 0.6157688 0.048830397 -0.53829384
跳 0.14289886 -0.23051316 -0.69684494 -0.4542417 0.5684952 -0.8847841 0.45086616 1.1423956 -1.0434668 -0.37446198
使 -0.5752208 -0.97211087 -0.0434622 -0.5013204 0.72711885 -0.9098771 0.7674968 0.33821037 0.077105135 -0.08903027
写 -0.5833712 -0.84057605 -0.17906669 -1.283749 1.0856202 -0.22409832 0.6895983 -0.17077887 -0.6035124 0.29715055
很 -0.68928534 -1.0278336 0.027017934 -1.242616 0.6529245 -0.1863919 0.7566711 -0.21001421 -0.45821106 -0.07307249
历 0.032056484 0.26453656 0.4579072 -0.16302782 1.2448388 -1.1296794 0.7860623 1.0764886 -0.7624941 0.32996604
谷 0.076631345 -0.6443701 0.039800353 -0.62131333 0.41438717 -0.0070866593 0.7568031 0.70130605 -0.30260667 -0.13533477
额 -0.09436009 -0.13639536 -0.15340719 0.23593532 -0.26368645 -1.3693298 0.4598664 1.9468776 -0.7440677 -0.48240513
倍 0.18525636 -0.8136674 0.8923611 0.87686837 1.2804163 -0.6650851 0.5840264 0.9333322 -2.0630946 0.3131014
丽 -0.65193206 -0.87972385 0.66804385 -0.7484118 0.35869622 -0.10416546 0.7486979 0.7807255 0.11744932 0.020093378
威 -0.7374085 -1.064891 1.0787001 -0.7780013 0.3828679 -0.86296904 0.19142823 0.15759432 0.18376327 -0.31501147
犯 -0.73591876 -0.45301893 -0.26589867 -1.252127 0.9330278 -0.91804343 1.3303949 -0.65818346 -0.93726116 0.0490492
榜 0.6207432 -0.50004315 -0.11591215 -0.96880376 0.6940626 -0.34749204 -0.18454292 1.0138143 -0.55437505 0.06926237
童 -0.492264 -0.7585802 0.7444705 -1.0149835 2.1140006 -1.0657598 1.3881063 -0.9983884 -0.107388586 0.19147822
仙 0.60630983 -2.2133687 0.28005505 -0.34081665 1.3751435 0.15228091 0.53762597 0.42174008 0.2737269 0.32495108
顺 -1.6752677 -1.2221633 -0.051046688 -0.7605065 0.7559036 -1.0870987 0.18687078 0.2507522 0.13490131 -0.40728688
供 -0.3832427 -0.10690145 0.044609237 -1.1699806 -0.59281874 -1.1937927 0.2871028 1.2082568 -0.28831294 0.44190115
皇 -0.115334764 -1.5067214 0.98952556 -0.57386476 1.4856956 -0.5680108 -0.104344375 0.10801018 0.7493905 -0.99130625
硕 -0.1989932 -1.6124369 1.3723549 -0.26103577 1.0230514 -0.36125916 -0.80989504 1.2772573 -0.18169722 1.7551264
并 -0.542622 -0.20884539 -0.24834162 -1.4279488 0.044004127 -0.69232076 1.088156 0.47556552 -0.05067386 0.06176636
拒 -1.0055386 -0.7713238 -0.2862032 -1.0068506 0.8125058 -0.9483219 1.1878473 -0.28467017 -0.23695615 0.115187295
m 1.5299586 -3.5741217 0.39438215 -0.21007966 -0.9591821 0.82410353 1.0004969 1.2640934 -0.6293446 -0.006586968
促 1.6943593 -0.9091252 0.63719434 -0.9076195 -0.45752475 -0.71000487 0.11749955 1.1257637 -0.7558518 -1.1792004
狂 0.32345605 -0.8232249 -0.111746766 -0.6293739 0.05980886 -0.3296342 0.38258323 0.7110243 -0.6850252 0.09728053
募 0.15083635 0.127093 0.041281123 -0.8175109 -0.3030039 -1.4653541 -0.0845502 1.4169713 -0.51070297 -0.14481823
审 -0.41121 0.44876698 -0.35978302 -1.3970996 0.15545656 -1.0499902 1.3172204 0.693203 -0.8210908 -0.36756867
副 0.017251818 -0.24776067 -0.08970335 -1.3605014 0.7328777 -1.9889177 0.31303734 0.56663555 0.6604428 0.39095092
败 -0.21161151 -0.74996614 -0.15078928 -0.6942675 0.77407473 -0.7009337 0.40738297 0.29370984 -0.68760216 -0.61025715
澳 0.2683334 -0.32773468 1.353846 -0.44142914 0.8638125 -1.1002768 -0.084819786 1.2657063 0.4983326 -0.4652199
伦 -0.54340374 -1.4180272 1.0957978 -0.23193696 0.9864721 -0.36755553 0.18075392 0.7730837 0.5251037 -0.8401903
检 -0.5234139 -0.09049607 -0.5262537 -1.378446 -0.016608788 -0.69033784 1.1183792 0.7145917 -0.31525803 0.58018523
甲 -0.55075586 -1.1131201 1.1306431 -0.5464543 0.27438858 -0.29805753 0.44900835 0.6536021 0.21811403 -0.50322527
探 0.14122447 -0.8716294 0.010069955 -0.496708 0.28924784 -0.4656138 0.36528003 1.042013 0.17284964 0.4171177
街 -0.7483648 -0.79722905 -0.085828096 -0.88655645 0.812883 -1.0565417 0.11059396 0.57269484 0.2452761 -0.56141347
智 0.16614825 -0.99001545 0.3029447 -1.083803 0.21949965 -0.5253177 0.20257443 0.15605205 -0.53043246 -0.31866866
午 0.23988722 -0.8123767 -0.72593814 -0.78823906 -0.17594934 -0.715978 0.15264963 1.7291242 -1.1838226 -0.9172429
诉 0.46775103 -0.18020993 -0.102211036 -0.07430856 -0.45375007 -1.3491935 1.6669736 0.42654023 -0.54821724 -1.0579259
夏 0.23933543 -1.0261657 0.3774563 -0.26260924 0.5986963 -0.48876676 -0.17250559 1.5968349 0.20627457 -0.7747889
缺 -0.8337494 -0.8169238 -0.105511665 -0.81448585 0.15597233 -0.8022261 0.7752643 -0.01586719 -0.24293028 -0.5239173
置 -0.838424 0.06274049 -0.11124379 -1.0145543 0.10524556 -1.3802896 0.0046010674 1.1626742 -0.40677464 -0.22512497
宅 -0.61548865 -0.34667948 -0.0146099785 -1.2279094 0.650168 -0.47951987 0.41020375 0.77676994 -0.0927372 -0.47815734
练 -0.8922102 -0.38298184 0.16207522 -0.71164894 1.3756369 -0.5700955 0.7923568 0.22377446 0.0073797856 0.17894009
护 -0.7597927 -0.512497 0.18699993 -1.0628006 0.41457173 -0.7216262 0.2249507 0.9027969 -0.0029120499 0.6978955
施 -0.77686673 -0.31006995 -0.34932828 -1.192773 0.39047515 -1.0118438 0.4176234 0.52077645 -0.14331281 0.15307684
七 0.27088523 -0.5409296 0.49228284 0.066198096 0.5840287 -0.9929606 0.47927842 1.1570897 -0.48167855 -0.4238091
挑 0.9308729 -1.079325 0.22529899 -0.73174566 1.1433592 -0.5768542 0.7494219 0.7171417 0.73333246 -0.38873336
域 0.13707376 -1.5407146 -0.076010846 -0.3856782 0.45517963 -0.3969037 0.46691018 1.5347248 0.25852436 -0.08909212
声 -0.13471863 -0.90514493 -0.41389117 -1.0054742 0.4401161 -0.56980705 0.7684877 0.65979207 -0.07390481 -0.6850213
竞 -0.34563527 -1.083754 0.57888216 -0.75419015 0.74488544 -0.7193297 -0.13643052 0.06117903 0.107845426 0.011668323
妇 -1.033292 -0.23984604 0.5705097 -1.2774051 1.7219347 -1.0646503 0.78673553 -0.6036078 -0.4696711 0.058653325
庭 0.16108365 0.27806026 -0.07652928 -2.0673869 0.41386765 -0.66400176 0.5669088 0.7328865 -0.09063935 0.29154003
画 -0.32233438 -0.70822614 -0.25202644 -1.242394 0.5244575 -0.9674511 0.19965649 0.27723572 -0.00045427124 0.14654066
毒 -0.5242385 -0.11844935 -0.21625987 -1.7301469 0.17145452 -0.66385204 0.6633859 0.3293759 -0.32514408 -0.07689179
蓝 -0.33749735 -0.3574372 0.9126631 -0.7127319 0.67067647 -0.22010292 0.489607 0.68223774 0.006222433 -0.3539342
闻 0.33992738 -0.8030542 -0.28541985 -1.2711743 1.5747918 -0.123932704 0.730883 0.48306185 0.46294665 0.14919436
必 -0.38498357 -0.300811 0.15660487 -1.2900276 0.40633553 -0.7546165 0.6450356 0.19860782 -0.608951 0.059044737
馆 0.99249786 -0.66504383 -0.8882393 -0.44040847 -0.57530487 -1.6402677 0.3074535 1.643134 -0.06363702 0.57769483
惊 0.56633174 -1.1143675 0.15834285 -1.16864 0.34980536 -0.403707 0.22201914 -0.10490081 -0.4713369 -0.26342645
润 -0.029968182 -0.7425156 1.4569873 0.00058466266 0.4317044 -1.1024153 -0.042770024 1.3716972 -0.106725454 -1.2482404
血 -0.085504636 -0.8159343 -0.31727803 -1.3138613 1.1648895 -0.24356532 0.7730112 0.15594608 0.09955133 -0.03809634
夜 0.32920796 -0.784532 -0.18607426 -0.7005416 0.6216275 -0.49300718 0.7431851 0.4185944 -0.5695826 -0.8053822
嘉 -0.68470114 -0.7814376 0.4737325 -0.6372608 1.1363976 -0.19721897 0.5268147 0.23276691 0.11044938 0.0067705223
幻 -0.6498459 -2.2618172 0.035131685 -0.8187152 1.8701811 -0.21298546 0.8207012 -0.010753254 0.43896425 -0.24896345
露 -0.6351189 -1.1450831 -0.30212033 -0.9540903 0.5073358 -0.15580371 0.93744093 0.24703524 -0.12967409 -0.06333427
思 -0.13858019 -0.7549108 0.29793674 -0.735958 0.18487872 -0.51733553 0.6424994 0.39819682 -0.091621995 0.14211951
u 0.6296215 -3.926017 0.087355755 -1.1335874 -0.44998783 0.781403 0.90748394 1.369017 0.27770117 0.20642896
承 -0.51163113 -0.35471353 0.08025096 -1.7433158 -0.25965178 -0.32733113 0.53143364 0.63930494 -0.316679 -0.3747201
边 0.14156437 -0.5841077 0.14218394 -0.9501857 0.57504714 -0.63549674 0.42729437 0.5592143 -0.15303329 -0.44087088
栋 0.6992306 -1.0954057 1.1616291 -0.7047055 -0.13742909 -2.3268743 0.46329415 -0.23373751 -1.7992761 -0.007950937
临 0.6669055 -0.8307158 -0.669133 -0.37918964 0.42209628 -0.5191421 1.0297251 1.0430605 -0.087397546 -0.50368744
细 -0.41646007 -0.35735804 -0.12866612 -0.45748794 0.59580195 -1.4375802 1.0405996 0.31709749 -0.37184146 0.08540941
托 -0.22322915 -0.9211919 0.5290257 -1.0147313 0.76149833 -0.9620638 -0.18253765 0.88317305 0.96582085 -0.26868066
稳 -0.34338465 -0.58018464 -0.054622233 -1.3804286 -0.014905393 -0.46308517 0.078273214 1.0363828 -0.34956396 -0.38489437
刀 -0.34339586 -1.1688427 0.18260969 -0.41905454 1.0206431 -0.72181016 0.76907426 -0.34132886 -0.8366599 -0.61890566
养 -0.8707067 -0.05281138 -0.3004317 -1.2391236 0.6097377 -0.97263175 0.81996596 0.33070856 -0.17555296 0.23143855
焦 -0.7435498 -0.866443 0.30309224 0.083548404 0.9355672 -0.8259532 0.91991156 0.54782987 -0.259044 0.027655482
条 0.17424294 -0.20066786 0.05339524 -0.29766822 0.6028738 -0.9679517 0.41889372 1.00867 -0.6459566 -0.673537
止 -0.086961225 -0.47836816 -0.15348954 -0.9455417 0.2606371 -0.68728 0.46044612 0.55258226 -0.5013394 -0.16557872
晶 0.6139646 -2.017513 0.21262267 0.009023584 0.36729506 -0.11809975 0.8991772 0.43771252 -0.14293537 0.032169122
共 0.020509688 -0.29849723 0.04231796 -0.54996854 0.007515369 -1.1590918 0.24142903 1.0126904 -0.14798976 0.18681458
然 -0.5158222 -1.2432786 -0.35470414 -1.1911551 0.38726082 -0.45283577 0.48992863 0.11289568 -0.37749398 -0.14299363
断 -0.2639275 -0.74746776 -0.24426661 -1.0007309 0.62332577 -0.48418087 0.9480562 -0.007893261 -0.34834638 -0.1479556
钢 -0.29555768 -0.5227457 0.95052993 -1.1562048 -0.63405305 -0.39732593 -0.14004368 1.0842853 -0.72648937 -0.24046934
浪 -0.078819685 -1.0660173 -0.69091874 -0.9511407 0.47419348 -1.2263402 0.52900475 0.4787381 0.958532 -0.17362618
免 -0.28763866 -0.6575562 -0.0023155424 -0.687164 0.13253598 -1.5818219 0.017608786 0.20764847 -0.7359736 0.09647759
样 0.2260505 -0.49991828 -0.10979703 -0.6959245 0.78953934 -1.1209989 1.1494145 0.26941684 -0.072194956 -1.268186
援 -0.1999166 -0.3605746 -0.08364291 -0.8595408 0.66993845 -0.8562035 0.16293529 0.97348976 -0.12245686 -0.022300286
U 0.9989606 -3.0072176 1.0737098 0.49760157 0.5576574 0.24173696 -0.27721658 1.5855585 -0.569225 0.296695
弃 -0.078025684 -0.49595398 -0.66249144 -0.93851763 0.48642513 -1.0919926 1.5671065 -0.09180751 -0.53356737 0.23958403
各 -0.14789414 -0.16565 0.34955576 -1.0079843 0.31055325 -1.0305622 0.474022 0.975114 -0.1327104 0.2582263
背 -0.44448164 -0.6299682 -0.84931207 -0.68934834 0.9310168 -0.6842263 0.48917064 0.7572504 -0.7774893 -0.65458226
怀 -0.93502873 -0.98495525 0.27789855 -1.0611132 1.3639863 -0.341675 1.0732304 -0.14766803 -0.20588192 -0.010069545
c 0.6221601 -3.5713427 -0.02118049 -1.0612615 -0.9001169 0.67640483 1.3051008 1.199839 0.035117008 -0.07351318
私 -0.24689245 0.035718855 0.33808494 -0.6520571 0.47777495 -0.89930767 0.45405862 1.2497454 -0.47783417 -0.24133405
箭 0.9934114 -1.0759555 -0.09996967 -1.9561039 0.03498776 -0.38232884 0.57017016 -0.0023351344 -0.31873652 -1.1467104
寸 1.6603136 -1.7375062 1.5034132 0.4773519 0.30904397 -0.0048245536 0.4097564 1.0248232 -1.0164632 -0.21602225
雅 -0.123593025 -0.85369045 0.24118136 -0.5374874 0.44941872 -0.31341696 0.6568532 0.3555401 -0.8709475 0.1639856
也 -0.4783521 -0.7744188 -0.2158859 -1.2500405 0.23323764 -0.55569047 1.0275052 0.014630293 -0.34729472 -0.46733484
峰 -0.18104587 -0.7993474 -0.3772658 -0.8003436 0.708927 -0.18176644 0.5551808 0.6180767 -0.030742357 0.30416888
禁 -0.111739635 -0.56200045 -0.064435296 -1.2003213 0.36373225 -0.38675427 0.53647506 0.6926272 -0.14798221 0.61083895
形 -0.77495486 -0.1271524 -0.26443523 -1.0713923 0.5501538 -0.645888 0.8056505 0.89566517 -0.36956754 -0.13220187
射 0.49190366 -0.8429399 -0.30207404 -0.33323947 0.1738101 -0.7570895 1.1187019 0.379954 -0.4207313 0.059398662
潮 -0.2766146 -0.5019851 -0.26155004 -0.841131 0.25559992 -0.62460196 0.49396142 0.7561951 -0.62659454 0.17949384
赔 -0.36947244 -0.7884538 0.75125176 0.6823172 0.5476073 -0.99335784 0.9904239 0.53954744 -1.4092199 -0.3871029
越 0.07483467 -0.9392425 0.34441456 -0.095649414 0.28677565 -0.33599126 0.47773156 0.8585283 -0.6380601 -0.20170857
围 -0.3156493 -0.4779328 0.31091392 -0.8345034 0.89236355 -0.5216056 0.64566493 0.33781034 -0.3256494 0.24558684
旬 1.1299187 -0.3510971 -0.051944885 -0.3508042 1.1597873 -0.874445 -0.16470176 1.2661219 -1.0064393 -0.6856429
姚 -0.3657654 -0.992708 -0.13390142 -0.67668825 0.92843354 -0.39753267 0.852114 0.6884022 -0.22908597 -0.57761097
彩 0.7991542 -1.0814867 0.258498 -0.51066035 0.4074351 -0.43035418 0.2666043 0.6095991 -0.12302692 -0.1427888
锋 0.094508685 -0.8590669 0.42638353 -0.6071073 0.55722475 -0.04113037 0.6807543 0.5104139 -0.21135166 -0.10151255
效 -0.6225078 -0.49987572 0.00037173298 -1.0362029 0.20137008 -0.74267083 0.72527796 0.10507769 -0.45160705 -0.032639466
